// Neural Network File Format by Kyle Julian, Stanford 2016
4,128,1,128,
128,32,16,16,1,
0,
0.0,0.0,0.0,0.0,0.0,0.0,0.0,0.0,0.0,0.0,0.0,0.0,0.0,0.0,0.0,0.0,0.0,0.0,0.0,0.0,0.0,0.0,0.0,0.0,0.0,0.0,0.0,0.0,0.0,0.0,0.0,0.0,0.0,0.0,0.0,0.0,0.0,0.0,0.0,0.0,0.0,0.0,0.0,0.0,0.0,0.0,0.0,0.0,0.0,0.0,0.0,0.0,0.0,0.0,0.0,0.0,0.0,0.0,0.0,0.0,0.0,0.0,0.0,0.0,0.0,0.0,0.0,0.0,0.0,0.0,0.0,0.0,0.0,0.0,0.0,0.0,0.0,0.0,0.0,0.0,0.0,0.0,0.0,0.0,0.0,0.0,0.0,0.0,0.0,0.0,0.0,0.0,0.0,0.0,0.0,0.0,0.0,0.0,0.0,0.0,0.0,0.0,0.0,0.0,0.0,0.0,0.0,0.0,0.0,0.0,0.0,0.0,0.0,0.0,0.0,0.0,0.0,0.0,0.0,0.0,0.0,0.0,0.0,0.0,0.0,0.0,0.0,0.0,
1.0,1.0,1.0,1.0,1.0,1.0,1.0,1.0,1.0,1.0,1.0,1.0,1.0,1.0,1.0,1.0,1.0,1.0,1.0,1.0,1.0,1.0,1.0,1.0,1.0,1.0,1.0,1.0,1.0,1.0,1.0,1.0,1.0,1.0,1.0,1.0,1.0,1.0,1.0,1.0,1.0,1.0,1.0,1.0,1.0,1.0,1.0,1.0,1.0,1.0,1.0,1.0,1.0,1.0,1.0,1.0,1.0,1.0,1.0,1.0,1.0,1.0,1.0,1.0,1.0,1.0,1.0,1.0,1.0,1.0,1.0,1.0,1.0,1.0,1.0,1.0,1.0,1.0,1.0,1.0,1.0,1.0,1.0,1.0,1.0,1.0,1.0,1.0,1.0,1.0,1.0,1.0,1.0,1.0,1.0,1.0,1.0,1.0,1.0,1.0,1.0,1.0,1.0,1.0,1.0,1.0,1.0,1.0,1.0,1.0,1.0,1.0,1.0,1.0,1.0,1.0,1.0,1.0,1.0,1.0,1.0,1.0,1.0,1.0,1.0,1.0,1.0,1.0,
0.0,0.0,0.0,0.0,0.0,0.0,0.0,0.0,0.0,0.0,0.0,0.0,0.0,0.0,0.0,0.0,0.0,0.0,0.0,0.0,0.0,0.0,0.0,0.0,0.0,0.0,0.0,0.0,0.0,0.0,0.0,0.0,0.0,0.0,0.0,0.0,0.0,0.0,0.0,0.0,0.0,0.0,0.0,0.0,0.0,0.0,0.0,0.0,0.0,0.0,0.0,0.0,0.0,0.0,0.0,0.0,0.0,0.0,0.0,0.0,0.0,0.0,0.0,0.0,0.0,0.0,0.0,0.0,0.0,0.0,0.0,0.0,0.0,0.0,0.0,0.0,0.0,0.0,0.0,0.0,0.0,0.0,0.0,0.0,0.0,0.0,0.0,0.0,0.0,0.0,0.0,0.0,0.0,0.0,0.0,0.0,0.0,0.0,0.0,0.0,0.0,0.0,0.0,0.0,0.0,0.0,0.0,0.0,0.0,0.0,0.0,0.0,0.0,0.0,0.0,0.0,0.0,0.0,0.0,0.0,0.0,0.0,0.0,0.0,0.0,0.0,0.0,0.0,0.0,
1.0,1.0,1.0,1.0,1.0,1.0,1.0,1.0,1.0,1.0,1.0,1.0,1.0,1.0,1.0,1.0,1.0,1.0,1.0,1.0,1.0,1.0,1.0,1.0,1.0,1.0,1.0,1.0,1.0,1.0,1.0,1.0,1.0,1.0,1.0,1.0,1.0,1.0,1.0,1.0,1.0,1.0,1.0,1.0,1.0,1.0,1.0,1.0,1.0,1.0,1.0,1.0,1.0,1.0,1.0,1.0,1.0,1.0,1.0,1.0,1.0,1.0,1.0,1.0,1.0,1.0,1.0,1.0,1.0,1.0,1.0,1.0,1.0,1.0,1.0,1.0,1.0,1.0,1.0,1.0,1.0,1.0,1.0,1.0,1.0,1.0,1.0,1.0,1.0,1.0,1.0,1.0,1.0,1.0,1.0,1.0,1.0,1.0,1.0,1.0,1.0,1.0,1.0,1.0,1.0,1.0,1.0,1.0,1.0,1.0,1.0,1.0,1.0,1.0,1.0,1.0,1.0,1.0,1.0,1.0,1.0,1.0,1.0,1.0,1.0,1.0,1.0,1.0,1.0,
3.78229e-01,1.10715e-01,2.28053e-01,4.39783e-01,4.77416e-01,2.10548e-01,-1.52612e-01,9.83735e-02,0.00000e+00,0.00000e+00,0.00000e+00,0.00000e+00,0.00000e+00,0.00000e+00,0.00000e+00,0.00000e+00,-6.78104e-01,-8.74206e-01,-9.51084e-01,-7.58125e-01,-9.19497e-01,-1.05672e+00,-9.59236e-01,-7.35865e-01,0.00000e+00,0.00000e+00,0.00000e+00,0.00000e+00,0.00000e+00,0.00000e+00,0.00000e+00,0.00000e+00,5.70307e-01,2.42617e-01,2.49411e-01,-7.74675e-02,-7.01108e-02,1.33398e-01,1.51097e-01,7.56363e-02,0.00000e+00,0.00000e+00,0.00000e+00,0.00000e+00,0.00000e+00,0.00000e+00,0.00000e+00,0.00000e+00,5.06948e-01,2.21931e-01,2.29579e-01,6.68244e-03,2.54790e-02,6.70160e-02,8.13635e-02,2.50294e-01,0.00000e+00,0.00000e+00,0.00000e+00,0.00000e+00,0.00000e+00,0.00000e+00,0.00000e+00,0.00000e+00,5.39959e-01,1.16900e-01,1.88207e-01,2.24980e-01,9.83510e-02,1.10068e-01,1.33889e-01,4.43181e-02,0.00000e+00,0.00000e+00,0.00000e+00,0.00000e+00,0.00000e+00,0.00000e+00,0.00000e+00,0.00000e+00,4.67004e-01,1.83566e-01,9.78685e-02,2.57661e-01,1.73179e-02,7.85708e-02,1.66667e-02,1.16033e-01,0.00000e+00,0.00000e+00,0.00000e+00,0.00000e+00,0.00000e+00,0.00000e+00,0.00000e+00,0.00000e+00,1.70685e-01,3.82658e-02,1.08424e-01,1.12668e-01,1.37867e-01,2.91199e-02,-2.20435e-02,2.59727e-01,0.00000e+00,0.00000e+00,0.00000e+00,0.00000e+00,0.00000e+00,0.00000e+00,0.00000e+00,0.00000e+00,2.16767e-01,1.65867e-01,2.04925e-01,2.66972e-01,2.05429e-01,1.83757e-01,1.67726e-01,2.71467e-01,0.00000e+00,0.00000e+00,0.00000e+00,0.00000e+00,0.00000e+00,0.00000e+00,0.00000e+00,0.00000e+00,
2.37902e-02,4.73898e-02,1.55956e-02,2.79514e-02,6.44545e-03,4.27562e-02,3.30686e-03,5.23262e-02,0.00000e+00,0.00000e+00,0.00000e+00,0.00000e+00,0.00000e+00,0.00000e+00,0.00000e+00,0.00000e+00,-4.40337e-02,-8.09548e-02,5.16906e-02,8.00884e-03,-7.71400e-02,1.15444e-02,1.14506e-02,3.32087e-02,0.00000e+00,0.00000e+00,0.00000e+00,0.00000e+00,0.00000e+00,0.00000e+00,0.00000e+00,0.00000e+00,-1.66358e-02,4.77290e-02,-2.12634e-02,-1.86473e-02,-5.01319e-02,1.82832e-02,1.26977e-02,-1.26329e-03,0.00000e+00,0.00000e+00,0.00000e+00,0.00000e+00,0.00000e+00,0.00000e+00,0.00000e+00,0.00000e+00,-2.31772e-02,1.10530e-02,-7.95575e-02,4.88023e-02,-3.60784e-02,-3.40778e-02,4.82416e-02,-3.43021e-02,0.00000e+00,0.00000e+00,0.00000e+00,0.00000e+00,0.00000e+00,0.00000e+00,0.00000e+00,0.00000e+00,-2.89644e-02,-5.56897e-02,-6.25523e-02,-5.76377e-02,-2.05871e-02,3.40011e-02,3.73641e-02,5.71921e-02,0.00000e+00,0.00000e+00,0.00000e+00,0.00000e+00,0.00000e+00,0.00000e+00,0.00000e+00,0.00000e+00,4.99516e-02,-6.48862e-02,-5.25192e-02,-3.53134e-02,5.61832e-02,-1.76935e-02,-5.94621e-02,-3.17236e-03,0.00000e+00,0.00000e+00,0.00000e+00,0.00000e+00,0.00000e+00,0.00000e+00,0.00000e+00,0.00000e+00,-5.70420e-02,4.45653e-02,5.92442e-02,3.81040e-02,-7.61302e-02,-4.75690e-02,-1.37479e-02,-5.00860e-02,0.00000e+00,0.00000e+00,0.00000e+00,0.00000e+00,0.00000e+00,0.00000e+00,0.00000e+00,0.00000e+00,2.70434e-02,1.42553e-02,-7.49147e-02,-7.19904e-03,-5.96981e-02,-7.17548e-03,-2.67857e-02,4.69917e-02,0.00000e+00,0.00000e+00,0.00000e+00,0.00000e+00,0.00000e+00,0.00000e+00,0.00000e+00,0.00000e+00,
-2.96263e-02,2.12627e-02,-4.65542e-02,-5.02947e-02,-4.41830e-03,-2.98600e-02,-3.21706e-02,-2.94204e-02,0.00000e+00,0.00000e+00,0.00000e+00,0.00000e+00,0.00000e+00,0.00000e+00,0.00000e+00,0.00000e+00,4.55239e-03,6.48216e-02,-4.73138e-02,-5.71253e-02,2.92428e-02,1.22283e-02,4.14509e-02,6.27206e-02,0.00000e+00,0.00000e+00,0.00000e+00,0.00000e+00,0.00000e+00,0.00000e+00,0.00000e+00,0.00000e+00,-1.29239e-02,3.34236e-02,-6.21421e-02,4.10299e-02,-1.70241e-02,4.66367e-02,-1.98248e-03,-3.98824e-02,0.00000e+00,0.00000e+00,0.00000e+00,0.00000e+00,0.00000e+00,0.00000e+00,0.00000e+00,0.00000e+00,-5.54760e-02,4.76394e-02,4.48006e-02,6.56169e-02,3.45821e-02,-1.08902e-02,-7.14559e-02,-1.90325e-02,0.00000e+00,0.00000e+00,0.00000e+00,0.00000e+00,0.00000e+00,0.00000e+00,0.00000e+00,0.00000e+00,-7.02382e-02,4.12245e-02,-5.30782e-02,-1.97094e-02,-2.38914e-02,1.36589e-02,-5.83500e-02,4.09966e-02,0.00000e+00,0.00000e+00,0.00000e+00,0.00000e+00,0.00000e+00,0.00000e+00,0.00000e+00,0.00000e+00,-1.03004e-03,-7.70558e-02,1.94633e-02,5.99423e-02,3.76968e-02,-1.38756e-02,-8.42313e-03,-6.32915e-02,0.00000e+00,0.00000e+00,0.00000e+00,0.00000e+00,0.00000e+00,0.00000e+00,0.00000e+00,0.00000e+00,2.78953e-02,7.14479e-03,-4.58472e-02,-1.94480e-02,6.50996e-02,3.82191e-03,2.00440e-02,-4.22754e-02,0.00000e+00,0.00000e+00,0.00000e+00,0.00000e+00,0.00000e+00,0.00000e+00,0.00000e+00,0.00000e+00,5.33644e-02,-3.54967e-02,-5.41839e-02,-6.06191e-02,-4.03997e-02,-6.13227e-02,3.63739e-02,-5.71511e-02,0.00000e+00,0.00000e+00,0.00000e+00,0.00000e+00,0.00000e+00,0.00000e+00,0.00000e+00,0.00000e+00,
-5.20995e-02,2.36197e-02,2.68673e-02,-3.16765e-02,-2.14361e-02,-6.22570e-02,-3.54393e-02,5.11995e-02,0.00000e+00,0.00000e+00,0.00000e+00,0.00000e+00,0.00000e+00,0.00000e+00,0.00000e+00,0.00000e+00,2.27871e-02,-3.65004e-02,4.55859e-02,-1.79622e-02,6.52663e-02,-3.50080e-02,-7.21302e-03,2.17455e-02,0.00000e+00,0.00000e+00,0.00000e+00,0.00000e+00,0.00000e+00,0.00000e+00,0.00000e+00,0.00000e+00,3.27900e-02,-6.30713e-02,-4.84418e-02,-1.29734e-02,-4.91654e-03,-6.06602e-02,-4.96431e-02,-1.00941e-02,0.00000e+00,0.00000e+00,0.00000e+00,0.00000e+00,0.00000e+00,0.00000e+00,0.00000e+00,0.00000e+00,4.17900e-02,-7.27350e-03,-1.25391e-02,1.80323e-02,4.99378e-02,-2.45018e-02,2.22490e-02,-1.32919e-02,0.00000e+00,0.00000e+00,0.00000e+00,0.00000e+00,0.00000e+00,0.00000e+00,0.00000e+00,0.00000e+00,-1.29838e-02,-1.10350e-02,5.68652e-02,7.00121e-03,1.66196e-02,-5.69391e-02,-4.44849e-02,-4.90251e-02,0.00000e+00,0.00000e+00,0.00000e+00,0.00000e+00,0.00000e+00,0.00000e+00,0.00000e+00,0.00000e+00,4.15268e-02,5.74057e-02,-7.26846e-02,-2.44646e-02,-1.41438e-03,5.29993e-02,5.63022e-02,-6.28082e-02,0.00000e+00,0.00000e+00,0.00000e+00,0.00000e+00,0.00000e+00,0.00000e+00,0.00000e+00,0.00000e+00,1.91499e-02,-2.01582e-02,-1.16231e-02,-6.09452e-02,-5.57433e-02,-6.56565e-02,-6.21601e-02,1.47876e-02,0.00000e+00,0.00000e+00,0.00000e+00,0.00000e+00,0.00000e+00,0.00000e+00,0.00000e+00,0.00000e+00,-2.78249e-02,2.35673e-02,8.25617e-03,-1.24728e-02,7.39470e-02,-2.54503e-02,-2.89052e-02,-2.27523e-02,0.00000e+00,0.00000e+00,0.00000e+00,0.00000e+00,0.00000e+00,0.00000e+00,0.00000e+00,0.00000e+00,
-4.00207e-01,-8.43637e-03,2.86056e-01,9.85013e-05,-2.49953e-01,-8.22739e-01,-7.79543e-01,-1.06136e+00,0.00000e+00,0.00000e+00,0.00000e+00,0.00000e+00,0.00000e+00,0.00000e+00,0.00000e+00,0.00000e+00,-2.30157e-01,-6.59820e-02,6.29646e-01,5.34073e-01,4.02620e-01,4.66964e-01,4.31598e-01,2.56128e-01,0.00000e+00,0.00000e+00,0.00000e+00,0.00000e+00,0.00000e+00,0.00000e+00,0.00000e+00,0.00000e+00,1.85389e-01,1.39711e-01,2.11827e-01,4.80962e-02,-1.97105e-01,9.50728e-02,-2.79550e-01,-6.67706e-01,0.00000e+00,0.00000e+00,0.00000e+00,0.00000e+00,0.00000e+00,0.00000e+00,0.00000e+00,0.00000e+00,3.16197e-01,1.99097e-01,1.02888e-02,-4.90405e-02,2.22302e-01,1.76641e-01,-1.52580e-01,-2.05766e-01,0.00000e+00,0.00000e+00,0.00000e+00,0.00000e+00,0.00000e+00,0.00000e+00,0.00000e+00,0.00000e+00,5.77324e-02,2.14670e-01,2.04858e-01,3.60952e-01,2.18610e-01,3.00405e-01,1.64940e-01,2.82951e-01,0.00000e+00,0.00000e+00,0.00000e+00,0.00000e+00,0.00000e+00,0.00000e+00,0.00000e+00,0.00000e+00,3.12354e-01,3.42727e-01,1.42738e-01,2.37848e-01,2.63569e-01,2.63070e-02,2.62678e-01,1.55238e-01,0.00000e+00,0.00000e+00,0.00000e+00,0.00000e+00,0.00000e+00,0.00000e+00,0.00000e+00,0.00000e+00,2.02403e-01,2.38622e-01,7.94269e-02,2.13410e-01,3.57938e-01,2.55649e-01,1.88758e-01,2.58014e-01,0.00000e+00,0.00000e+00,0.00000e+00,0.00000e+00,0.00000e+00,0.00000e+00,0.00000e+00,0.00000e+00,3.13578e-01,5.55877e-01,5.36538e-01,4.16554e-01,5.23456e-01,4.72691e-01,4.16185e-01,2.25303e-01,0.00000e+00,0.00000e+00,0.00000e+00,0.00000e+00,0.00000e+00,0.00000e+00,0.00000e+00,0.00000e+00,
-1.21290e+00,-4.56899e-01,-1.69326e-01,-2.21821e-01,-1.47438e-01,-2.33903e-01,-3.31057e-01,-5.20395e-01,0.00000e+00,0.00000e+00,0.00000e+00,0.00000e+00,0.00000e+00,0.00000e+00,0.00000e+00,0.00000e+00,-9.49112e-01,3.58209e-02,2.80485e-01,4.14074e-01,7.26927e-01,9.97242e-01,6.02897e-01,-4.89390e-02,0.00000e+00,0.00000e+00,0.00000e+00,0.00000e+00,0.00000e+00,0.00000e+00,0.00000e+00,0.00000e+00,-1.16967e+00,-6.50588e-01,-1.59966e-01,2.45417e-01,5.29458e-01,9.10479e-01,8.84388e-01,5.66552e-01,0.00000e+00,0.00000e+00,0.00000e+00,0.00000e+00,0.00000e+00,0.00000e+00,0.00000e+00,0.00000e+00,-3.08699e-01,-1.28041e-04,2.45419e-02,9.72312e-02,9.46066e-02,8.84627e-02,3.65150e-01,3.08292e-01,0.00000e+00,0.00000e+00,0.00000e+00,0.00000e+00,0.00000e+00,0.00000e+00,0.00000e+00,0.00000e+00,-2.60342e-01,1.57119e-01,1.23902e-01,7.81130e-02,1.90068e-01,1.69885e-02,6.42546e-02,1.30263e-03,0.00000e+00,0.00000e+00,0.00000e+00,0.00000e+00,0.00000e+00,0.00000e+00,0.00000e+00,0.00000e+00,-1.63310e-01,5.95308e-03,-1.01971e-02,-6.48603e-02,1.25286e-02,2.15051e-01,2.73431e-01,2.61710e-01,0.00000e+00,0.00000e+00,0.00000e+00,0.00000e+00,0.00000e+00,0.00000e+00,0.00000e+00,0.00000e+00,-1.06964e-01,-8.91736e-02,1.50196e-03,-1.17946e-02,-9.05874e-02,-5.86330e-02,7.04505e-02,1.98610e-01,0.00000e+00,0.00000e+00,0.00000e+00,0.00000e+00,0.00000e+00,0.00000e+00,0.00000e+00,0.00000e+00,-2.59313e-01,-5.87285e-02,-1.17535e-01,-5.94016e-02,-1.16558e-01,-4.62878e-02,-3.11303e-02,4.02727e-04,0.00000e+00,0.00000e+00,0.00000e+00,0.00000e+00,0.00000e+00,0.00000e+00,0.00000e+00,0.00000e+00,
-2.10924e-01,3.67737e-02,-3.29239e-01,-2.74439e-01,-1.20490e-01,3.55705e-01,2.51527e-01,-1.12287e-01,0.00000e+00,0.00000e+00,0.00000e+00,0.00000e+00,0.00000e+00,0.00000e+00,0.00000e+00,0.00000e+00,1.09689e+00,6.30250e-01,-8.47481e-02,-5.29902e-01,-1.40912e-01,-1.45460e-01,-5.26206e-01,-7.78508e-01,0.00000e+00,0.00000e+00,0.00000e+00,0.00000e+00,0.00000e+00,0.00000e+00,0.00000e+00,0.00000e+00,-2.44248e-01,-1.10451e-01,-1.07867e-01,-1.50553e-01,-4.38409e-02,-6.28338e-02,3.90902e-01,5.69048e-01,0.00000e+00,0.00000e+00,0.00000e+00,0.00000e+00,0.00000e+00,0.00000e+00,0.00000e+00,0.00000e+00,-2.82908e-01,-1.77987e-01,-7.54223e-02,-2.16313e-02,2.09774e-01,3.22556e-01,6.83982e-01,7.08354e-01,0.00000e+00,0.00000e+00,0.00000e+00,0.00000e+00,0.00000e+00,0.00000e+00,0.00000e+00,0.00000e+00,-5.33720e-01,-2.80652e-01,-2.79896e-02,-3.35417e-02,2.63606e-01,1.40654e-01,2.29674e-01,5.22647e-01,0.00000e+00,0.00000e+00,0.00000e+00,0.00000e+00,0.00000e+00,0.00000e+00,0.00000e+00,0.00000e+00,-3.92238e-01,-1.57982e-01,-9.20369e-02,-7.61686e-03,1.39886e-01,1.64247e-01,4.82922e-02,3.15623e-01,0.00000e+00,0.00000e+00,0.00000e+00,0.00000e+00,0.00000e+00,0.00000e+00,0.00000e+00,0.00000e+00,-4.42793e-01,-7.81867e-02,9.04865e-02,-3.71408e-03,2.21861e-01,1.50072e-01,1.03210e-01,4.49639e-01,0.00000e+00,0.00000e+00,0.00000e+00,0.00000e+00,0.00000e+00,0.00000e+00,0.00000e+00,0.00000e+00,-1.69809e-01,1.63932e-01,-1.33854e-02,8.03883e-02,1.00095e-01,2.47334e-01,3.45955e-01,3.72184e-01,0.00000e+00,0.00000e+00,0.00000e+00,0.00000e+00,0.00000e+00,0.00000e+00,0.00000e+00,0.00000e+00,
-7.98501e-02,-3.93068e-03,-6.71257e-02,-2.82731e-02,-7.04066e-02,1.80229e-02,-8.64361e-02,-5.09653e-02,0.00000e+00,0.00000e+00,0.00000e+00,0.00000e+00,0.00000e+00,0.00000e+00,0.00000e+00,0.00000e+00,-4.70251e-02,-4.48693e-02,9.54474e-03,7.62336e-03,-7.10501e-02,4.75045e-02,-8.71425e-02,-9.66359e-02,0.00000e+00,0.00000e+00,0.00000e+00,0.00000e+00,0.00000e+00,0.00000e+00,0.00000e+00,0.00000e+00,2.84774e-02,3.38380e-02,-2.17340e-02,-3.90637e-02,-7.20494e-02,3.41366e-02,1.47485e-02,3.03656e-02,0.00000e+00,0.00000e+00,0.00000e+00,0.00000e+00,0.00000e+00,0.00000e+00,0.00000e+00,0.00000e+00,3.91548e-02,2.57902e-02,-1.62141e-02,-6.95729e-02,-2.00083e-02,-4.72263e-02,-7.00291e-02,-4.87159e-02,0.00000e+00,0.00000e+00,0.00000e+00,0.00000e+00,0.00000e+00,0.00000e+00,0.00000e+00,0.00000e+00,2.87868e-02,-6.04952e-02,3.17942e-02,-5.18409e-02,-2.83016e-02,-6.83115e-02,-9.65916e-02,-7.41403e-02,0.00000e+00,0.00000e+00,0.00000e+00,0.00000e+00,0.00000e+00,0.00000e+00,0.00000e+00,0.00000e+00,-5.72685e-02,8.81994e-03,4.03884e-02,-6.91657e-02,-7.26683e-02,2.72425e-03,-8.18667e-02,-5.37703e-02,0.00000e+00,0.00000e+00,0.00000e+00,0.00000e+00,0.00000e+00,0.00000e+00,0.00000e+00,0.00000e+00,2.13206e-02,-8.30996e-02,-6.03045e-02,3.43562e-03,-7.44471e-02,-9.38375e-02,3.71454e-02,-5.69183e-02,0.00000e+00,0.00000e+00,0.00000e+00,0.00000e+00,0.00000e+00,0.00000e+00,0.00000e+00,0.00000e+00,2.56978e-02,-2.01544e-02,2.65632e-02,5.30753e-03,4.99939e-03,2.05891e-02,-8.74184e-02,-8.73659e-02,0.00000e+00,0.00000e+00,0.00000e+00,0.00000e+00,0.00000e+00,0.00000e+00,0.00000e+00,0.00000e+00,
-4.14652e-01,-9.06270e-01,-1.13487e+00,-1.04362e+00,-7.35234e-01,-5.15311e-01,-1.71054e-01,2.61524e-01,0.00000e+00,0.00000e+00,0.00000e+00,0.00000e+00,0.00000e+00,0.00000e+00,0.00000e+00,0.00000e+00,1.22698e+00,5.55355e-01,4.97162e-01,5.59524e-01,5.78186e-02,2.71571e-02,-1.55276e-01,-3.84983e-01,0.00000e+00,0.00000e+00,0.00000e+00,0.00000e+00,0.00000e+00,0.00000e+00,0.00000e+00,0.00000e+00,1.66994e+00,9.32169e-01,4.47844e-01,1.10990e-01,-6.78285e-02,4.28661e-02,1.67635e-01,2.49416e-01,0.00000e+00,0.00000e+00,0.00000e+00,0.00000e+00,0.00000e+00,0.00000e+00,0.00000e+00,0.00000e+00,8.73375e-01,4.71234e-01,2.32784e-01,1.98116e-02,4.78256e-02,-5.92123e-02,-3.26242e-02,2.14902e-01,0.00000e+00,0.00000e+00,0.00000e+00,0.00000e+00,0.00000e+00,0.00000e+00,0.00000e+00,0.00000e+00,8.71291e-01,3.90657e-01,2.77075e-01,-1.76654e-01,-6.06141e-02,1.94972e-02,4.83578e-02,-2.13660e-01,0.00000e+00,0.00000e+00,0.00000e+00,0.00000e+00,0.00000e+00,0.00000e+00,0.00000e+00,0.00000e+00,5.93572e-01,2.87023e-01,1.96004e-01,1.39998e-01,-5.80761e-02,-1.33059e-01,-1.00150e-01,-2.21001e-01,0.00000e+00,0.00000e+00,0.00000e+00,0.00000e+00,0.00000e+00,0.00000e+00,0.00000e+00,0.00000e+00,4.17887e-01,6.71519e-02,-2.21851e-02,-7.84399e-02,-1.69785e-01,-2.17004e-01,-1.50679e-02,-2.90434e-01,0.00000e+00,0.00000e+00,0.00000e+00,0.00000e+00,0.00000e+00,0.00000e+00,0.00000e+00,0.00000e+00,3.48297e-01,1.37910e-01,1.19614e-01,1.80063e-01,2.16775e-01,-7.08736e-02,-2.98360e-01,-3.03000e-01,0.00000e+00,0.00000e+00,0.00000e+00,0.00000e+00,0.00000e+00,0.00000e+00,0.00000e+00,0.00000e+00,
-2.98164e-02,4.06371e-02,-1.44434e-02,-4.76917e-02,-3.13358e-02,-3.93857e-02,2.70550e-02,4.36626e-02,0.00000e+00,0.00000e+00,0.00000e+00,0.00000e+00,0.00000e+00,0.00000e+00,0.00000e+00,0.00000e+00,-6.30298e-02,-3.34896e-02,-5.96630e-02,3.09926e-02,-1.19355e-05,4.31359e-02,-7.08664e-02,-1.96395e-02,0.00000e+00,0.00000e+00,0.00000e+00,0.00000e+00,0.00000e+00,0.00000e+00,0.00000e+00,0.00000e+00,-5.36438e-02,3.56409e-02,-5.14687e-02,-7.98359e-02,-7.14028e-02,1.81031e-02,-2.57811e-02,5.01766e-02,0.00000e+00,0.00000e+00,0.00000e+00,0.00000e+00,0.00000e+00,0.00000e+00,0.00000e+00,0.00000e+00,2.65796e-02,5.85821e-02,-5.70732e-02,-2.89821e-02,-3.04513e-02,-3.39141e-02,-2.71857e-02,5.09150e-02,0.00000e+00,0.00000e+00,0.00000e+00,0.00000e+00,0.00000e+00,0.00000e+00,0.00000e+00,0.00000e+00,-1.58231e-02,-3.90543e-02,4.20417e-02,-1.37982e-02,6.17927e-02,6.69429e-02,-7.08846e-02,4.79374e-02,0.00000e+00,0.00000e+00,0.00000e+00,0.00000e+00,0.00000e+00,0.00000e+00,0.00000e+00,0.00000e+00,-4.05692e-02,3.38983e-02,1.47720e-02,5.61870e-02,-2.43201e-02,1.15262e-02,-3.46061e-02,5.23032e-02,0.00000e+00,0.00000e+00,0.00000e+00,0.00000e+00,0.00000e+00,0.00000e+00,0.00000e+00,0.00000e+00,4.38951e-02,2.21503e-02,-3.86830e-02,-6.16773e-02,6.91823e-03,-6.55173e-02,5.19316e-02,-4.17901e-04,0.00000e+00,0.00000e+00,0.00000e+00,0.00000e+00,0.00000e+00,0.00000e+00,0.00000e+00,0.00000e+00,6.09155e-02,-6.02061e-02,-7.06271e-02,3.25975e-02,-4.58481e-02,5.01260e-03,-7.81665e-02,3.59836e-02,0.00000e+00,0.00000e+00,0.00000e+00,0.00000e+00,0.00000e+00,0.00000e+00,0.00000e+00,0.00000e+00,
-9.22121e-02,-1.17642e-01,2.66303e-02,2.01703e-01,2.88498e-01,2.47559e-01,3.62666e-01,3.51045e-01,0.00000e+00,0.00000e+00,0.00000e+00,0.00000e+00,0.00000e+00,0.00000e+00,0.00000e+00,0.00000e+00,2.18606e-02,1.16874e-01,4.12242e-01,7.59855e-01,8.84052e-01,9.56513e-01,1.25220e+00,1.31056e+00,0.00000e+00,0.00000e+00,0.00000e+00,0.00000e+00,0.00000e+00,0.00000e+00,0.00000e+00,0.00000e+00,3.45535e-01,2.17366e-01,1.24129e-01,2.70273e-02,1.61156e-01,1.97209e-01,3.31388e-01,3.53589e-01,0.00000e+00,0.00000e+00,0.00000e+00,0.00000e+00,0.00000e+00,0.00000e+00,0.00000e+00,0.00000e+00,1.81556e-01,9.22813e-02,2.78323e-02,4.41523e-02,-6.93622e-02,-5.37988e-02,-3.46176e-02,1.59777e-01,0.00000e+00,0.00000e+00,0.00000e+00,0.00000e+00,0.00000e+00,0.00000e+00,0.00000e+00,0.00000e+00,6.88415e-02,4.34208e-02,-1.59000e-03,-1.00776e-01,-9.16602e-02,-1.95084e-01,-1.92803e-01,-4.20995e-01,0.00000e+00,0.00000e+00,0.00000e+00,0.00000e+00,0.00000e+00,0.00000e+00,0.00000e+00,0.00000e+00,-5.63659e-02,-2.07621e-01,-6.76636e-02,-1.37442e-01,-1.67680e-01,-1.78467e-01,-1.47206e-01,-1.94611e-01,0.00000e+00,0.00000e+00,0.00000e+00,0.00000e+00,0.00000e+00,0.00000e+00,0.00000e+00,0.00000e+00,-5.33748e-02,-1.69064e-01,-2.28695e-01,-2.49689e-01,-2.08314e-01,-2.52500e-01,-1.55371e-01,-2.61166e-01,0.00000e+00,0.00000e+00,0.00000e+00,0.00000e+00,0.00000e+00,0.00000e+00,0.00000e+00,0.00000e+00,-1.51698e-01,-2.02494e-01,-2.64873e-01,-2.60653e-01,-3.20681e-01,-3.99906e-01,-3.07352e-01,-3.98197e-01,0.00000e+00,0.00000e+00,0.00000e+00,0.00000e+00,0.00000e+00,0.00000e+00,0.00000e+00,0.00000e+00,
-6.38224e-02,-1.42374e-02,4.43199e-02,-5.76884e-02,1.41160e-02,-5.18937e-02,6.13458e-03,6.46320e-02,0.00000e+00,0.00000e+00,0.00000e+00,0.00000e+00,0.00000e+00,0.00000e+00,0.00000e+00,0.00000e+00,3.74533e-02,-7.61832e-02,-5.52083e-02,-4.84249e-02,-8.06949e-02,-5.14373e-02,-8.60020e-03,-4.90087e-02,0.00000e+00,0.00000e+00,0.00000e+00,0.00000e+00,0.00000e+00,0.00000e+00,0.00000e+00,0.00000e+00,6.38984e-02,-1.38345e-04,-2.52505e-02,-4.23744e-02,-7.00453e-02,2.79454e-02,-4.80824e-02,-3.50804e-02,0.00000e+00,0.00000e+00,0.00000e+00,0.00000e+00,0.00000e+00,0.00000e+00,0.00000e+00,0.00000e+00,-7.66100e-02,8.39260e-03,-1.56214e-02,1.44628e-03,8.08304e-03,-1.58913e-02,6.01596e-02,8.57195e-03,0.00000e+00,0.00000e+00,0.00000e+00,0.00000e+00,0.00000e+00,0.00000e+00,0.00000e+00,0.00000e+00,4.75186e-02,-1.95342e-02,-6.07785e-02,-5.62275e-02,6.07792e-02,5.33436e-02,-3.29589e-02,9.25648e-03,0.00000e+00,0.00000e+00,0.00000e+00,0.00000e+00,0.00000e+00,0.00000e+00,0.00000e+00,0.00000e+00,-9.39343e-03,5.61152e-02,-7.51641e-02,3.30572e-02,3.40705e-02,-2.66552e-02,2.15636e-02,6.01492e-02,0.00000e+00,0.00000e+00,0.00000e+00,0.00000e+00,0.00000e+00,0.00000e+00,0.00000e+00,0.00000e+00,2.04145e-02,3.14472e-02,2.21949e-04,1.50268e-02,-4.10637e-02,-1.91578e-02,-4.20252e-02,6.17300e-02,0.00000e+00,0.00000e+00,0.00000e+00,0.00000e+00,0.00000e+00,0.00000e+00,0.00000e+00,0.00000e+00,-5.75438e-02,-1.74917e-02,1.76982e-02,5.90320e-02,-4.84100e-02,-1.52631e-02,-3.23014e-02,4.17468e-02,0.00000e+00,0.00000e+00,0.00000e+00,0.00000e+00,0.00000e+00,0.00000e+00,0.00000e+00,0.00000e+00,
-4.79366e-02,-2.44419e-02,-4.51143e-02,-5.20935e-02,1.77350e-02,-2.05502e-02,5.94511e-02,6.02635e-02,0.00000e+00,0.00000e+00,0.00000e+00,0.00000e+00,0.00000e+00,0.00000e+00,0.00000e+00,0.00000e+00,4.11865e-02,-6.51085e-02,4.01101e-03,-5.87414e-02,4.82623e-02,-1.35846e-02,-5.57883e-02,6.15910e-02,0.00000e+00,0.00000e+00,0.00000e+00,0.00000e+00,0.00000e+00,0.00000e+00,0.00000e+00,0.00000e+00,5.80067e-02,-2.74587e-02,3.91975e-02,3.25607e-02,-1.18884e-02,-3.04225e-02,9.85570e-03,-3.82447e-03,0.00000e+00,0.00000e+00,0.00000e+00,0.00000e+00,0.00000e+00,0.00000e+00,0.00000e+00,0.00000e+00,3.16326e-02,-3.65584e-02,2.52425e-02,-7.00081e-02,-3.79439e-02,-5.25123e-02,-7.13357e-02,-3.37718e-02,0.00000e+00,0.00000e+00,0.00000e+00,0.00000e+00,0.00000e+00,0.00000e+00,0.00000e+00,0.00000e+00,-5.22369e-02,5.01776e-02,1.26325e-02,5.01489e-02,-6.02305e-02,-2.78202e-02,2.25743e-02,-3.57150e-02,0.00000e+00,0.00000e+00,0.00000e+00,0.00000e+00,0.00000e+00,0.00000e+00,0.00000e+00,0.00000e+00,6.49156e-02,-3.08641e-02,-4.58673e-02,7.22266e-02,-6.20943e-02,5.37546e-02,3.17037e-02,3.47117e-02,0.00000e+00,0.00000e+00,0.00000e+00,0.00000e+00,0.00000e+00,0.00000e+00,0.00000e+00,0.00000e+00,-7.10711e-02,-5.05618e-02,-4.71185e-02,-5.01719e-02,-1.40496e-02,4.89096e-03,-4.81890e-02,-3.06779e-02,0.00000e+00,0.00000e+00,0.00000e+00,0.00000e+00,0.00000e+00,0.00000e+00,0.00000e+00,0.00000e+00,-7.82248e-03,9.87355e-03,-7.08660e-02,-1.39558e-03,2.62761e-03,-2.31275e-02,-3.27011e-02,-5.94878e-02,0.00000e+00,0.00000e+00,0.00000e+00,0.00000e+00,0.00000e+00,0.00000e+00,0.00000e+00,0.00000e+00,
1.83607e-02,4.06655e-02,-6.90165e-02,-7.02436e-02,-5.63163e-02,-2.50836e-02,1.55667e-02,-7.27075e-02,0.00000e+00,0.00000e+00,0.00000e+00,0.00000e+00,0.00000e+00,0.00000e+00,0.00000e+00,0.00000e+00,2.27128e-02,2.68519e-02,5.74743e-02,2.26586e-02,3.87198e-02,1.22180e-02,1.12047e-02,-7.85135e-02,0.00000e+00,0.00000e+00,0.00000e+00,0.00000e+00,0.00000e+00,0.00000e+00,0.00000e+00,0.00000e+00,-2.49495e-02,4.87387e-02,5.68472e-03,-2.15088e-02,-7.27407e-02,-5.04796e-02,5.24133e-03,-1.66475e-02,0.00000e+00,0.00000e+00,0.00000e+00,0.00000e+00,0.00000e+00,0.00000e+00,0.00000e+00,0.00000e+00,2.63220e-02,-5.19482e-02,-2.52822e-02,5.59689e-03,-2.98855e-02,-4.63715e-02,2.84496e-02,3.64262e-02,0.00000e+00,0.00000e+00,0.00000e+00,0.00000e+00,0.00000e+00,0.00000e+00,0.00000e+00,0.00000e+00,4.21740e-02,-4.89790e-02,-2.77249e-03,-8.59960e-03,-8.50595e-03,-6.19940e-02,3.10029e-02,-4.24300e-03,0.00000e+00,0.00000e+00,0.00000e+00,0.00000e+00,0.00000e+00,0.00000e+00,0.00000e+00,0.00000e+00,-8.00017e-02,3.82134e-02,4.24459e-02,2.57634e-02,-1.38279e-02,-2.03073e-02,-6.63099e-02,4.88556e-02,0.00000e+00,0.00000e+00,0.00000e+00,0.00000e+00,0.00000e+00,0.00000e+00,0.00000e+00,0.00000e+00,2.24987e-02,2.26420e-02,-3.73944e-02,4.67017e-02,-3.04819e-02,-5.43561e-02,7.69858e-04,2.93762e-02,0.00000e+00,0.00000e+00,0.00000e+00,0.00000e+00,0.00000e+00,0.00000e+00,0.00000e+00,0.00000e+00,-5.99327e-02,-1.73906e-02,-7.77666e-02,4.77866e-02,-2.04002e-02,-3.40133e-02,3.14077e-02,4.69224e-02,0.00000e+00,0.00000e+00,0.00000e+00,0.00000e+00,0.00000e+00,0.00000e+00,0.00000e+00,0.00000e+00,
5.09008e-01,7.60663e-01,1.10042e+00,1.05341e+00,5.73356e-01,1.15003e-01,2.31420e-02,-1.58124e-01,0.00000e+00,0.00000e+00,0.00000e+00,0.00000e+00,0.00000e+00,0.00000e+00,0.00000e+00,0.00000e+00,8.51942e-01,6.74913e-01,8.65309e-01,8.37078e-01,1.87505e-01,-5.58557e-01,-1.01033e+00,-1.25868e+00,0.00000e+00,0.00000e+00,0.00000e+00,0.00000e+00,0.00000e+00,0.00000e+00,0.00000e+00,0.00000e+00,2.89621e-01,1.21035e-01,1.46361e-01,6.28457e-02,9.68556e-02,1.19504e-01,-8.15305e-02,-3.72821e-01,0.00000e+00,0.00000e+00,0.00000e+00,0.00000e+00,0.00000e+00,0.00000e+00,0.00000e+00,0.00000e+00,2.74987e-01,5.48817e-03,1.91465e-01,1.99872e-01,-9.01970e-02,-1.22661e-01,-4.55110e-01,-3.32049e-01,0.00000e+00,0.00000e+00,0.00000e+00,0.00000e+00,0.00000e+00,0.00000e+00,0.00000e+00,0.00000e+00,9.49225e-02,5.09706e-02,-3.71857e-02,-1.83722e-04,5.17196e-03,-1.39557e-01,-4.19324e-02,-3.43299e-01,0.00000e+00,0.00000e+00,0.00000e+00,0.00000e+00,0.00000e+00,0.00000e+00,0.00000e+00,0.00000e+00,1.26729e-01,-4.82690e-02,-6.00998e-02,2.57115e-03,-1.97781e-02,-6.92664e-02,-9.42994e-03,-5.08481e-02,0.00000e+00,0.00000e+00,0.00000e+00,0.00000e+00,0.00000e+00,0.00000e+00,0.00000e+00,0.00000e+00,1.15226e-02,-1.36760e-01,-4.94025e-02,-1.54516e-01,-1.51381e-01,-1.63616e-01,-1.20382e-01,-1.17821e-01,0.00000e+00,0.00000e+00,0.00000e+00,0.00000e+00,0.00000e+00,0.00000e+00,0.00000e+00,0.00000e+00,-4.61496e-02,-1.65348e-01,-1.91798e-01,-1.03533e-01,-1.54943e-01,-1.67066e-01,-1.56491e-01,-1.72013e-01,0.00000e+00,0.00000e+00,0.00000e+00,0.00000e+00,0.00000e+00,0.00000e+00,0.00000e+00,0.00000e+00,
-7.18450e-02,-3.42616e-02,-2.04501e-02,5.23015e-02,-2.97903e-02,-1.62821e-02,-5.63678e-02,-5.15551e-02,0.00000e+00,0.00000e+00,0.00000e+00,0.00000e+00,0.00000e+00,0.00000e+00,0.00000e+00,0.00000e+00,1.55137e-02,-3.89775e-02,-6.06416e-02,6.86112e-02,-8.85671e-03,-6.51003e-02,-5.60756e-02,1.53524e-02,0.00000e+00,0.00000e+00,0.00000e+00,0.00000e+00,0.00000e+00,0.00000e+00,0.00000e+00,0.00000e+00,2.52719e-02,5.69611e-02,-7.21192e-02,8.43689e-03,2.17116e-02,-3.12796e-02,-1.44661e-02,-3.79017e-02,0.00000e+00,0.00000e+00,0.00000e+00,0.00000e+00,0.00000e+00,0.00000e+00,0.00000e+00,0.00000e+00,-8.40075e-03,-8.65529e-03,-4.38289e-02,-2.79406e-02,-4.21023e-02,3.80044e-02,-5.89966e-02,-7.01619e-02,0.00000e+00,0.00000e+00,0.00000e+00,0.00000e+00,0.00000e+00,0.00000e+00,0.00000e+00,0.00000e+00,-1.05207e-02,2.63732e-02,-6.69647e-02,-6.99154e-02,5.12151e-02,-5.42806e-02,3.90329e-02,-3.54951e-02,0.00000e+00,0.00000e+00,0.00000e+00,0.00000e+00,0.00000e+00,0.00000e+00,0.00000e+00,0.00000e+00,-4.48272e-02,5.18463e-02,6.31223e-02,-6.63001e-02,6.89072e-02,3.65706e-02,-3.97766e-02,3.88044e-02,0.00000e+00,0.00000e+00,0.00000e+00,0.00000e+00,0.00000e+00,0.00000e+00,0.00000e+00,0.00000e+00,-5.49341e-02,4.34740e-02,3.60145e-02,-4.54915e-02,-7.07208e-02,5.33947e-02,8.26777e-03,5.41444e-02,0.00000e+00,0.00000e+00,0.00000e+00,0.00000e+00,0.00000e+00,0.00000e+00,0.00000e+00,0.00000e+00,-2.22926e-02,4.87895e-02,6.80594e-03,-4.90036e-02,-9.09968e-03,-1.12081e-02,2.98731e-02,6.42845e-02,0.00000e+00,0.00000e+00,0.00000e+00,0.00000e+00,0.00000e+00,0.00000e+00,0.00000e+00,0.00000e+00,
0.00000e+00,0.00000e+00,0.00000e+00,0.00000e+00,0.00000e+00,0.00000e+00,0.00000e+00,0.00000e+00,3.78229e-01,1.10715e-01,2.28053e-01,4.39783e-01,4.77416e-01,2.10548e-01,-1.52612e-01,9.83735e-02,0.00000e+00,0.00000e+00,0.00000e+00,0.00000e+00,0.00000e+00,0.00000e+00,0.00000e+00,0.00000e+00,-6.78104e-01,-8.74206e-01,-9.51084e-01,-7.58125e-01,-9.19497e-01,-1.05672e+00,-9.59236e-01,-7.35865e-01,0.00000e+00,0.00000e+00,0.00000e+00,0.00000e+00,0.00000e+00,0.00000e+00,0.00000e+00,0.00000e+00,5.70307e-01,2.42617e-01,2.49411e-01,-7.74675e-02,-7.01108e-02,1.33398e-01,1.51097e-01,7.56363e-02,0.00000e+00,0.00000e+00,0.00000e+00,0.00000e+00,0.00000e+00,0.00000e+00,0.00000e+00,0.00000e+00,5.06948e-01,2.21931e-01,2.29579e-01,6.68244e-03,2.54790e-02,6.70160e-02,8.13635e-02,2.50294e-01,0.00000e+00,0.00000e+00,0.00000e+00,0.00000e+00,0.00000e+00,0.00000e+00,0.00000e+00,0.00000e+00,5.39959e-01,1.16900e-01,1.88207e-01,2.24980e-01,9.83510e-02,1.10068e-01,1.33889e-01,4.43181e-02,0.00000e+00,0.00000e+00,0.00000e+00,0.00000e+00,0.00000e+00,0.00000e+00,0.00000e+00,0.00000e+00,4.67004e-01,1.83566e-01,9.78685e-02,2.57661e-01,1.73179e-02,7.85708e-02,1.66667e-02,1.16033e-01,0.00000e+00,0.00000e+00,0.00000e+00,0.00000e+00,0.00000e+00,0.00000e+00,0.00000e+00,0.00000e+00,1.70685e-01,3.82658e-02,1.08424e-01,1.12668e-01,1.37867e-01,2.91199e-02,-2.20435e-02,2.59727e-01,0.00000e+00,0.00000e+00,0.00000e+00,0.00000e+00,0.00000e+00,0.00000e+00,0.00000e+00,0.00000e+00,2.16767e-01,1.65867e-01,2.04925e-01,2.66972e-01,2.05429e-01,1.83757e-01,1.67726e-01,2.71467e-01,
0.00000e+00,0.00000e+00,0.00000e+00,0.00000e+00,0.00000e+00,0.00000e+00,0.00000e+00,0.00000e+00,2.37902e-02,4.73898e-02,1.55956e-02,2.79514e-02,6.44545e-03,4.27562e-02,3.30686e-03,5.23262e-02,0.00000e+00,0.00000e+00,0.00000e+00,0.00000e+00,0.00000e+00,0.00000e+00,0.00000e+00,0.00000e+00,-4.40337e-02,-8.09548e-02,5.16906e-02,8.00884e-03,-7.71400e-02,1.15444e-02,1.14506e-02,3.32087e-02,0.00000e+00,0.00000e+00,0.00000e+00,0.00000e+00,0.00000e+00,0.00000e+00,0.00000e+00,0.00000e+00,-1.66358e-02,4.77290e-02,-2.12634e-02,-1.86473e-02,-5.01319e-02,1.82832e-02,1.26977e-02,-1.26329e-03,0.00000e+00,0.00000e+00,0.00000e+00,0.00000e+00,0.00000e+00,0.00000e+00,0.00000e+00,0.00000e+00,-2.31772e-02,1.10530e-02,-7.95575e-02,4.88023e-02,-3.60784e-02,-3.40778e-02,4.82416e-02,-3.43021e-02,0.00000e+00,0.00000e+00,0.00000e+00,0.00000e+00,0.00000e+00,0.00000e+00,0.00000e+00,0.00000e+00,-2.89644e-02,-5.56897e-02,-6.25523e-02,-5.76377e-02,-2.05871e-02,3.40011e-02,3.73641e-02,5.71921e-02,0.00000e+00,0.00000e+00,0.00000e+00,0.00000e+00,0.00000e+00,0.00000e+00,0.00000e+00,0.00000e+00,4.99516e-02,-6.48862e-02,-5.25192e-02,-3.53134e-02,5.61832e-02,-1.76935e-02,-5.94621e-02,-3.17236e-03,0.00000e+00,0.00000e+00,0.00000e+00,0.00000e+00,0.00000e+00,0.00000e+00,0.00000e+00,0.00000e+00,-5.70420e-02,4.45653e-02,5.92442e-02,3.81040e-02,-7.61302e-02,-4.75690e-02,-1.37479e-02,-5.00860e-02,0.00000e+00,0.00000e+00,0.00000e+00,0.00000e+00,0.00000e+00,0.00000e+00,0.00000e+00,0.00000e+00,2.70434e-02,1.42553e-02,-7.49147e-02,-7.19904e-03,-5.96981e-02,-7.17548e-03,-2.67857e-02,4.69917e-02,
0.00000e+00,0.00000e+00,0.00000e+00,0.00000e+00,0.00000e+00,0.00000e+00,0.00000e+00,0.00000e+00,-2.96263e-02,2.12627e-02,-4.65542e-02,-5.02947e-02,-4.41830e-03,-2.98600e-02,-3.21706e-02,-2.94204e-02,0.00000e+00,0.00000e+00,0.00000e+00,0.00000e+00,0.00000e+00,0.00000e+00,0.00000e+00,0.00000e+00,4.55239e-03,6.48216e-02,-4.73138e-02,-5.71253e-02,2.92428e-02,1.22283e-02,4.14509e-02,6.27206e-02,0.00000e+00,0.00000e+00,0.00000e+00,0.00000e+00,0.00000e+00,0.00000e+00,0.00000e+00,0.00000e+00,-1.29239e-02,3.34236e-02,-6.21421e-02,4.10299e-02,-1.70241e-02,4.66367e-02,-1.98248e-03,-3.98824e-02,0.00000e+00,0.00000e+00,0.00000e+00,0.00000e+00,0.00000e+00,0.00000e+00,0.00000e+00,0.00000e+00,-5.54760e-02,4.76394e-02,4.48006e-02,6.56169e-02,3.45821e-02,-1.08902e-02,-7.14559e-02,-1.90325e-02,0.00000e+00,0.00000e+00,0.00000e+00,0.00000e+00,0.00000e+00,0.00000e+00,0.00000e+00,0.00000e+00,-7.02382e-02,4.12245e-02,-5.30782e-02,-1.97094e-02,-2.38914e-02,1.36589e-02,-5.83500e-02,4.09966e-02,0.00000e+00,0.00000e+00,0.00000e+00,0.00000e+00,0.00000e+00,0.00000e+00,0.00000e+00,0.00000e+00,-1.03004e-03,-7.70558e-02,1.94633e-02,5.99423e-02,3.76968e-02,-1.38756e-02,-8.42313e-03,-6.32915e-02,0.00000e+00,0.00000e+00,0.00000e+00,0.00000e+00,0.00000e+00,0.00000e+00,0.00000e+00,0.00000e+00,2.78953e-02,7.14479e-03,-4.58472e-02,-1.94480e-02,6.50996e-02,3.82191e-03,2.00440e-02,-4.22754e-02,0.00000e+00,0.00000e+00,0.00000e+00,0.00000e+00,0.00000e+00,0.00000e+00,0.00000e+00,0.00000e+00,5.33644e-02,-3.54967e-02,-5.41839e-02,-6.06191e-02,-4.03997e-02,-6.13227e-02,3.63739e-02,-5.71511e-02,
0.00000e+00,0.00000e+00,0.00000e+00,0.00000e+00,0.00000e+00,0.00000e+00,0.00000e+00,0.00000e+00,-5.20995e-02,2.36197e-02,2.68673e-02,-3.16765e-02,-2.14361e-02,-6.22570e-02,-3.54393e-02,5.11995e-02,0.00000e+00,0.00000e+00,0.00000e+00,0.00000e+00,0.00000e+00,0.00000e+00,0.00000e+00,0.00000e+00,2.27871e-02,-3.65004e-02,4.55859e-02,-1.79622e-02,6.52663e-02,-3.50080e-02,-7.21302e-03,2.17455e-02,0.00000e+00,0.00000e+00,0.00000e+00,0.00000e+00,0.00000e+00,0.00000e+00,0.00000e+00,0.00000e+00,3.27900e-02,-6.30713e-02,-4.84418e-02,-1.29734e-02,-4.91654e-03,-6.06602e-02,-4.96431e-02,-1.00941e-02,0.00000e+00,0.00000e+00,0.00000e+00,0.00000e+00,0.00000e+00,0.00000e+00,0.00000e+00,0.00000e+00,4.17900e-02,-7.27350e-03,-1.25391e-02,1.80323e-02,4.99378e-02,-2.45018e-02,2.22490e-02,-1.32919e-02,0.00000e+00,0.00000e+00,0.00000e+00,0.00000e+00,0.00000e+00,0.00000e+00,0.00000e+00,0.00000e+00,-1.29838e-02,-1.10350e-02,5.68652e-02,7.00121e-03,1.66196e-02,-5.69391e-02,-4.44849e-02,-4.90251e-02,0.00000e+00,0.00000e+00,0.00000e+00,0.00000e+00,0.00000e+00,0.00000e+00,0.00000e+00,0.00000e+00,4.15268e-02,5.74057e-02,-7.26846e-02,-2.44646e-02,-1.41438e-03,5.29993e-02,5.63022e-02,-6.28082e-02,0.00000e+00,0.00000e+00,0.00000e+00,0.00000e+00,0.00000e+00,0.00000e+00,0.00000e+00,0.00000e+00,1.91499e-02,-2.01582e-02,-1.16231e-02,-6.09452e-02,-5.57433e-02,-6.56565e-02,-6.21601e-02,1.47876e-02,0.00000e+00,0.00000e+00,0.00000e+00,0.00000e+00,0.00000e+00,0.00000e+00,0.00000e+00,0.00000e+00,-2.78249e-02,2.35673e-02,8.25617e-03,-1.24728e-02,7.39470e-02,-2.54503e-02,-2.89052e-02,-2.27523e-02,
0.00000e+00,0.00000e+00,0.00000e+00,0.00000e+00,0.00000e+00,0.00000e+00,0.00000e+00,0.00000e+00,-4.00207e-01,-8.43637e-03,2.86056e-01,9.85013e-05,-2.49953e-01,-8.22739e-01,-7.79543e-01,-1.06136e+00,0.00000e+00,0.00000e+00,0.00000e+00,0.00000e+00,0.00000e+00,0.00000e+00,0.00000e+00,0.00000e+00,-2.30157e-01,-6.59820e-02,6.29646e-01,5.34073e-01,4.02620e-01,4.66964e-01,4.31598e-01,2.56128e-01,0.00000e+00,0.00000e+00,0.00000e+00,0.00000e+00,0.00000e+00,0.00000e+00,0.00000e+00,0.00000e+00,1.85389e-01,1.39711e-01,2.11827e-01,4.80962e-02,-1.97105e-01,9.50728e-02,-2.79550e-01,-6.67706e-01,0.00000e+00,0.00000e+00,0.00000e+00,0.00000e+00,0.00000e+00,0.00000e+00,0.00000e+00,0.00000e+00,3.16197e-01,1.99097e-01,1.02888e-02,-4.90405e-02,2.22302e-01,1.76641e-01,-1.52580e-01,-2.05766e-01,0.00000e+00,0.00000e+00,0.00000e+00,0.00000e+00,0.00000e+00,0.00000e+00,0.00000e+00,0.00000e+00,5.77324e-02,2.14670e-01,2.04858e-01,3.60952e-01,2.18610e-01,3.00405e-01,1.64940e-01,2.82951e-01,0.00000e+00,0.00000e+00,0.00000e+00,0.00000e+00,0.00000e+00,0.00000e+00,0.00000e+00,0.00000e+00,3.12354e-01,3.42727e-01,1.42738e-01,2.37848e-01,2.63569e-01,2.63070e-02,2.62678e-01,1.55238e-01,0.00000e+00,0.00000e+00,0.00000e+00,0.00000e+00,0.00000e+00,0.00000e+00,0.00000e+00,0.00000e+00,2.02403e-01,2.38622e-01,7.94269e-02,2.13410e-01,3.57938e-01,2.55649e-01,1.88758e-01,2.58014e-01,0.00000e+00,0.00000e+00,0.00000e+00,0.00000e+00,0.00000e+00,0.00000e+00,0.00000e+00,0.00000e+00,3.13578e-01,5.55877e-01,5.36538e-01,4.16554e-01,5.23456e-01,4.72691e-01,4.16185e-01,2.25303e-01,
0.00000e+00,0.00000e+00,0.00000e+00,0.00000e+00,0.00000e+00,0.00000e+00,0.00000e+00,0.00000e+00,-1.21290e+00,-4.56899e-01,-1.69326e-01,-2.21821e-01,-1.47438e-01,-2.33903e-01,-3.31057e-01,-5.20395e-01,0.00000e+00,0.00000e+00,0.00000e+00,0.00000e+00,0.00000e+00,0.00000e+00,0.00000e+00,0.00000e+00,-9.49112e-01,3.58209e-02,2.80485e-01,4.14074e-01,7.26927e-01,9.97242e-01,6.02897e-01,-4.89390e-02,0.00000e+00,0.00000e+00,0.00000e+00,0.00000e+00,0.00000e+00,0.00000e+00,0.00000e+00,0.00000e+00,-1.16967e+00,-6.50588e-01,-1.59966e-01,2.45417e-01,5.29458e-01,9.10479e-01,8.84388e-01,5.66552e-01,0.00000e+00,0.00000e+00,0.00000e+00,0.00000e+00,0.00000e+00,0.00000e+00,0.00000e+00,0.00000e+00,-3.08699e-01,-1.28041e-04,2.45419e-02,9.72312e-02,9.46066e-02,8.84627e-02,3.65150e-01,3.08292e-01,0.00000e+00,0.00000e+00,0.00000e+00,0.00000e+00,0.00000e+00,0.00000e+00,0.00000e+00,0.00000e+00,-2.60342e-01,1.57119e-01,1.23902e-01,7.81130e-02,1.90068e-01,1.69885e-02,6.42546e-02,1.30263e-03,0.00000e+00,0.00000e+00,0.00000e+00,0.00000e+00,0.00000e+00,0.00000e+00,0.00000e+00,0.00000e+00,-1.63310e-01,5.95308e-03,-1.01971e-02,-6.48603e-02,1.25286e-02,2.15051e-01,2.73431e-01,2.61710e-01,0.00000e+00,0.00000e+00,0.00000e+00,0.00000e+00,0.00000e+00,0.00000e+00,0.00000e+00,0.00000e+00,-1.06964e-01,-8.91736e-02,1.50196e-03,-1.17946e-02,-9.05874e-02,-5.86330e-02,7.04505e-02,1.98610e-01,0.00000e+00,0.00000e+00,0.00000e+00,0.00000e+00,0.00000e+00,0.00000e+00,0.00000e+00,0.00000e+00,-2.59313e-01,-5.87285e-02,-1.17535e-01,-5.94016e-02,-1.16558e-01,-4.62878e-02,-3.11303e-02,4.02727e-04,
0.00000e+00,0.00000e+00,0.00000e+00,0.00000e+00,0.00000e+00,0.00000e+00,0.00000e+00,0.00000e+00,-2.10924e-01,3.67737e-02,-3.29239e-01,-2.74439e-01,-1.20490e-01,3.55705e-01,2.51527e-01,-1.12287e-01,0.00000e+00,0.00000e+00,0.00000e+00,0.00000e+00,0.00000e+00,0.00000e+00,0.00000e+00,0.00000e+00,1.09689e+00,6.30250e-01,-8.47481e-02,-5.29902e-01,-1.40912e-01,-1.45460e-01,-5.26206e-01,-7.78508e-01,0.00000e+00,0.00000e+00,0.00000e+00,0.00000e+00,0.00000e+00,0.00000e+00,0.00000e+00,0.00000e+00,-2.44248e-01,-1.10451e-01,-1.07867e-01,-1.50553e-01,-4.38409e-02,-6.28338e-02,3.90902e-01,5.69048e-01,0.00000e+00,0.00000e+00,0.00000e+00,0.00000e+00,0.00000e+00,0.00000e+00,0.00000e+00,0.00000e+00,-2.82908e-01,-1.77987e-01,-7.54223e-02,-2.16313e-02,2.09774e-01,3.22556e-01,6.83982e-01,7.08354e-01,0.00000e+00,0.00000e+00,0.00000e+00,0.00000e+00,0.00000e+00,0.00000e+00,0.00000e+00,0.00000e+00,-5.33720e-01,-2.80652e-01,-2.79896e-02,-3.35417e-02,2.63606e-01,1.40654e-01,2.29674e-01,5.22647e-01,0.00000e+00,0.00000e+00,0.00000e+00,0.00000e+00,0.00000e+00,0.00000e+00,0.00000e+00,0.00000e+00,-3.92238e-01,-1.57982e-01,-9.20369e-02,-7.61686e-03,1.39886e-01,1.64247e-01,4.82922e-02,3.15623e-01,0.00000e+00,0.00000e+00,0.00000e+00,0.00000e+00,0.00000e+00,0.00000e+00,0.00000e+00,0.00000e+00,-4.42793e-01,-7.81867e-02,9.04865e-02,-3.71408e-03,2.21861e-01,1.50072e-01,1.03210e-01,4.49639e-01,0.00000e+00,0.00000e+00,0.00000e+00,0.00000e+00,0.00000e+00,0.00000e+00,0.00000e+00,0.00000e+00,-1.69809e-01,1.63932e-01,-1.33854e-02,8.03883e-02,1.00095e-01,2.47334e-01,3.45955e-01,3.72184e-01,
0.00000e+00,0.00000e+00,0.00000e+00,0.00000e+00,0.00000e+00,0.00000e+00,0.00000e+00,0.00000e+00,-7.98501e-02,-3.93068e-03,-6.71257e-02,-2.82731e-02,-7.04066e-02,1.80229e-02,-8.64361e-02,-5.09653e-02,0.00000e+00,0.00000e+00,0.00000e+00,0.00000e+00,0.00000e+00,0.00000e+00,0.00000e+00,0.00000e+00,-4.70251e-02,-4.48693e-02,9.54474e-03,7.62336e-03,-7.10501e-02,4.75045e-02,-8.71425e-02,-9.66359e-02,0.00000e+00,0.00000e+00,0.00000e+00,0.00000e+00,0.00000e+00,0.00000e+00,0.00000e+00,0.00000e+00,2.84774e-02,3.38380e-02,-2.17340e-02,-3.90637e-02,-7.20494e-02,3.41366e-02,1.47485e-02,3.03656e-02,0.00000e+00,0.00000e+00,0.00000e+00,0.00000e+00,0.00000e+00,0.00000e+00,0.00000e+00,0.00000e+00,3.91548e-02,2.57902e-02,-1.62141e-02,-6.95729e-02,-2.00083e-02,-4.72263e-02,-7.00291e-02,-4.87159e-02,0.00000e+00,0.00000e+00,0.00000e+00,0.00000e+00,0.00000e+00,0.00000e+00,0.00000e+00,0.00000e+00,2.87868e-02,-6.04952e-02,3.17942e-02,-5.18409e-02,-2.83016e-02,-6.83115e-02,-9.65916e-02,-7.41403e-02,0.00000e+00,0.00000e+00,0.00000e+00,0.00000e+00,0.00000e+00,0.00000e+00,0.00000e+00,0.00000e+00,-5.72685e-02,8.81994e-03,4.03884e-02,-6.91657e-02,-7.26683e-02,2.72425e-03,-8.18667e-02,-5.37703e-02,0.00000e+00,0.00000e+00,0.00000e+00,0.00000e+00,0.00000e+00,0.00000e+00,0.00000e+00,0.00000e+00,2.13206e-02,-8.30996e-02,-6.03045e-02,3.43562e-03,-7.44471e-02,-9.38375e-02,3.71454e-02,-5.69183e-02,0.00000e+00,0.00000e+00,0.00000e+00,0.00000e+00,0.00000e+00,0.00000e+00,0.00000e+00,0.00000e+00,2.56978e-02,-2.01544e-02,2.65632e-02,5.30753e-03,4.99939e-03,2.05891e-02,-8.74184e-02,-8.73659e-02,
0.00000e+00,0.00000e+00,0.00000e+00,0.00000e+00,0.00000e+00,0.00000e+00,0.00000e+00,0.00000e+00,-4.14652e-01,-9.06270e-01,-1.13487e+00,-1.04362e+00,-7.35234e-01,-5.15311e-01,-1.71054e-01,2.61524e-01,0.00000e+00,0.00000e+00,0.00000e+00,0.00000e+00,0.00000e+00,0.00000e+00,0.00000e+00,0.00000e+00,1.22698e+00,5.55355e-01,4.97162e-01,5.59524e-01,5.78186e-02,2.71571e-02,-1.55276e-01,-3.84983e-01,0.00000e+00,0.00000e+00,0.00000e+00,0.00000e+00,0.00000e+00,0.00000e+00,0.00000e+00,0.00000e+00,1.66994e+00,9.32169e-01,4.47844e-01,1.10990e-01,-6.78285e-02,4.28661e-02,1.67635e-01,2.49416e-01,0.00000e+00,0.00000e+00,0.00000e+00,0.00000e+00,0.00000e+00,0.00000e+00,0.00000e+00,0.00000e+00,8.73375e-01,4.71234e-01,2.32784e-01,1.98116e-02,4.78256e-02,-5.92123e-02,-3.26242e-02,2.14902e-01,0.00000e+00,0.00000e+00,0.00000e+00,0.00000e+00,0.00000e+00,0.00000e+00,0.00000e+00,0.00000e+00,8.71291e-01,3.90657e-01,2.77075e-01,-1.76654e-01,-6.06141e-02,1.94972e-02,4.83578e-02,-2.13660e-01,0.00000e+00,0.00000e+00,0.00000e+00,0.00000e+00,0.00000e+00,0.00000e+00,0.00000e+00,0.00000e+00,5.93572e-01,2.87023e-01,1.96004e-01,1.39998e-01,-5.80761e-02,-1.33059e-01,-1.00150e-01,-2.21001e-01,0.00000e+00,0.00000e+00,0.00000e+00,0.00000e+00,0.00000e+00,0.00000e+00,0.00000e+00,0.00000e+00,4.17887e-01,6.71519e-02,-2.21851e-02,-7.84399e-02,-1.69785e-01,-2.17004e-01,-1.50679e-02,-2.90434e-01,0.00000e+00,0.00000e+00,0.00000e+00,0.00000e+00,0.00000e+00,0.00000e+00,0.00000e+00,0.00000e+00,3.48297e-01,1.37910e-01,1.19614e-01,1.80063e-01,2.16775e-01,-7.08736e-02,-2.98360e-01,-3.03000e-01,
0.00000e+00,0.00000e+00,0.00000e+00,0.00000e+00,0.00000e+00,0.00000e+00,0.00000e+00,0.00000e+00,-2.98164e-02,4.06371e-02,-1.44434e-02,-4.76917e-02,-3.13358e-02,-3.93857e-02,2.70550e-02,4.36626e-02,0.00000e+00,0.00000e+00,0.00000e+00,0.00000e+00,0.00000e+00,0.00000e+00,0.00000e+00,0.00000e+00,-6.30298e-02,-3.34896e-02,-5.96630e-02,3.09926e-02,-1.19355e-05,4.31359e-02,-7.08664e-02,-1.96395e-02,0.00000e+00,0.00000e+00,0.00000e+00,0.00000e+00,0.00000e+00,0.00000e+00,0.00000e+00,0.00000e+00,-5.36438e-02,3.56409e-02,-5.14687e-02,-7.98359e-02,-7.14028e-02,1.81031e-02,-2.57811e-02,5.01766e-02,0.00000e+00,0.00000e+00,0.00000e+00,0.00000e+00,0.00000e+00,0.00000e+00,0.00000e+00,0.00000e+00,2.65796e-02,5.85821e-02,-5.70732e-02,-2.89821e-02,-3.04513e-02,-3.39141e-02,-2.71857e-02,5.09150e-02,0.00000e+00,0.00000e+00,0.00000e+00,0.00000e+00,0.00000e+00,0.00000e+00,0.00000e+00,0.00000e+00,-1.58231e-02,-3.90543e-02,4.20417e-02,-1.37982e-02,6.17927e-02,6.69429e-02,-7.08846e-02,4.79374e-02,0.00000e+00,0.00000e+00,0.00000e+00,0.00000e+00,0.00000e+00,0.00000e+00,0.00000e+00,0.00000e+00,-4.05692e-02,3.38983e-02,1.47720e-02,5.61870e-02,-2.43201e-02,1.15262e-02,-3.46061e-02,5.23032e-02,0.00000e+00,0.00000e+00,0.00000e+00,0.00000e+00,0.00000e+00,0.00000e+00,0.00000e+00,0.00000e+00,4.38951e-02,2.21503e-02,-3.86830e-02,-6.16773e-02,6.91823e-03,-6.55173e-02,5.19316e-02,-4.17901e-04,0.00000e+00,0.00000e+00,0.00000e+00,0.00000e+00,0.00000e+00,0.00000e+00,0.00000e+00,0.00000e+00,6.09155e-02,-6.02061e-02,-7.06271e-02,3.25975e-02,-4.58481e-02,5.01260e-03,-7.81665e-02,3.59836e-02,
0.00000e+00,0.00000e+00,0.00000e+00,0.00000e+00,0.00000e+00,0.00000e+00,0.00000e+00,0.00000e+00,-9.22121e-02,-1.17642e-01,2.66303e-02,2.01703e-01,2.88498e-01,2.47559e-01,3.62666e-01,3.51045e-01,0.00000e+00,0.00000e+00,0.00000e+00,0.00000e+00,0.00000e+00,0.00000e+00,0.00000e+00,0.00000e+00,2.18606e-02,1.16874e-01,4.12242e-01,7.59855e-01,8.84052e-01,9.56513e-01,1.25220e+00,1.31056e+00,0.00000e+00,0.00000e+00,0.00000e+00,0.00000e+00,0.00000e+00,0.00000e+00,0.00000e+00,0.00000e+00,3.45535e-01,2.17366e-01,1.24129e-01,2.70273e-02,1.61156e-01,1.97209e-01,3.31388e-01,3.53589e-01,0.00000e+00,0.00000e+00,0.00000e+00,0.00000e+00,0.00000e+00,0.00000e+00,0.00000e+00,0.00000e+00,1.81556e-01,9.22813e-02,2.78323e-02,4.41523e-02,-6.93622e-02,-5.37988e-02,-3.46176e-02,1.59777e-01,0.00000e+00,0.00000e+00,0.00000e+00,0.00000e+00,0.00000e+00,0.00000e+00,0.00000e+00,0.00000e+00,6.88415e-02,4.34208e-02,-1.59000e-03,-1.00776e-01,-9.16602e-02,-1.95084e-01,-1.92803e-01,-4.20995e-01,0.00000e+00,0.00000e+00,0.00000e+00,0.00000e+00,0.00000e+00,0.00000e+00,0.00000e+00,0.00000e+00,-5.63659e-02,-2.07621e-01,-6.76636e-02,-1.37442e-01,-1.67680e-01,-1.78467e-01,-1.47206e-01,-1.94611e-01,0.00000e+00,0.00000e+00,0.00000e+00,0.00000e+00,0.00000e+00,0.00000e+00,0.00000e+00,0.00000e+00,-5.33748e-02,-1.69064e-01,-2.28695e-01,-2.49689e-01,-2.08314e-01,-2.52500e-01,-1.55371e-01,-2.61166e-01,0.00000e+00,0.00000e+00,0.00000e+00,0.00000e+00,0.00000e+00,0.00000e+00,0.00000e+00,0.00000e+00,-1.51698e-01,-2.02494e-01,-2.64873e-01,-2.60653e-01,-3.20681e-01,-3.99906e-01,-3.07352e-01,-3.98197e-01,
0.00000e+00,0.00000e+00,0.00000e+00,0.00000e+00,0.00000e+00,0.00000e+00,0.00000e+00,0.00000e+00,-6.38224e-02,-1.42374e-02,4.43199e-02,-5.76884e-02,1.41160e-02,-5.18937e-02,6.13458e-03,6.46320e-02,0.00000e+00,0.00000e+00,0.00000e+00,0.00000e+00,0.00000e+00,0.00000e+00,0.00000e+00,0.00000e+00,3.74533e-02,-7.61832e-02,-5.52083e-02,-4.84249e-02,-8.06949e-02,-5.14373e-02,-8.60020e-03,-4.90087e-02,0.00000e+00,0.00000e+00,0.00000e+00,0.00000e+00,0.00000e+00,0.00000e+00,0.00000e+00,0.00000e+00,6.38984e-02,-1.38345e-04,-2.52505e-02,-4.23744e-02,-7.00453e-02,2.79454e-02,-4.80824e-02,-3.50804e-02,0.00000e+00,0.00000e+00,0.00000e+00,0.00000e+00,0.00000e+00,0.00000e+00,0.00000e+00,0.00000e+00,-7.66100e-02,8.39260e-03,-1.56214e-02,1.44628e-03,8.08304e-03,-1.58913e-02,6.01596e-02,8.57195e-03,0.00000e+00,0.00000e+00,0.00000e+00,0.00000e+00,0.00000e+00,0.00000e+00,0.00000e+00,0.00000e+00,4.75186e-02,-1.95342e-02,-6.07785e-02,-5.62275e-02,6.07792e-02,5.33436e-02,-3.29589e-02,9.25648e-03,0.00000e+00,0.00000e+00,0.00000e+00,0.00000e+00,0.00000e+00,0.00000e+00,0.00000e+00,0.00000e+00,-9.39343e-03,5.61152e-02,-7.51641e-02,3.30572e-02,3.40705e-02,-2.66552e-02,2.15636e-02,6.01492e-02,0.00000e+00,0.00000e+00,0.00000e+00,0.00000e+00,0.00000e+00,0.00000e+00,0.00000e+00,0.00000e+00,2.04145e-02,3.14472e-02,2.21949e-04,1.50268e-02,-4.10637e-02,-1.91578e-02,-4.20252e-02,6.17300e-02,0.00000e+00,0.00000e+00,0.00000e+00,0.00000e+00,0.00000e+00,0.00000e+00,0.00000e+00,0.00000e+00,-5.75438e-02,-1.74917e-02,1.76982e-02,5.90320e-02,-4.84100e-02,-1.52631e-02,-3.23014e-02,4.17468e-02,
0.00000e+00,0.00000e+00,0.00000e+00,0.00000e+00,0.00000e+00,0.00000e+00,0.00000e+00,0.00000e+00,-4.79366e-02,-2.44419e-02,-4.51143e-02,-5.20935e-02,1.77350e-02,-2.05502e-02,5.94511e-02,6.02635e-02,0.00000e+00,0.00000e+00,0.00000e+00,0.00000e+00,0.00000e+00,0.00000e+00,0.00000e+00,0.00000e+00,4.11865e-02,-6.51085e-02,4.01101e-03,-5.87414e-02,4.82623e-02,-1.35846e-02,-5.57883e-02,6.15910e-02,0.00000e+00,0.00000e+00,0.00000e+00,0.00000e+00,0.00000e+00,0.00000e+00,0.00000e+00,0.00000e+00,5.80067e-02,-2.74587e-02,3.91975e-02,3.25607e-02,-1.18884e-02,-3.04225e-02,9.85570e-03,-3.82447e-03,0.00000e+00,0.00000e+00,0.00000e+00,0.00000e+00,0.00000e+00,0.00000e+00,0.00000e+00,0.00000e+00,3.16326e-02,-3.65584e-02,2.52425e-02,-7.00081e-02,-3.79439e-02,-5.25123e-02,-7.13357e-02,-3.37718e-02,0.00000e+00,0.00000e+00,0.00000e+00,0.00000e+00,0.00000e+00,0.00000e+00,0.00000e+00,0.00000e+00,-5.22369e-02,5.01776e-02,1.26325e-02,5.01489e-02,-6.02305e-02,-2.78202e-02,2.25743e-02,-3.57150e-02,0.00000e+00,0.00000e+00,0.00000e+00,0.00000e+00,0.00000e+00,0.00000e+00,0.00000e+00,0.00000e+00,6.49156e-02,-3.08641e-02,-4.58673e-02,7.22266e-02,-6.20943e-02,5.37546e-02,3.17037e-02,3.47117e-02,0.00000e+00,0.00000e+00,0.00000e+00,0.00000e+00,0.00000e+00,0.00000e+00,0.00000e+00,0.00000e+00,-7.10711e-02,-5.05618e-02,-4.71185e-02,-5.01719e-02,-1.40496e-02,4.89096e-03,-4.81890e-02,-3.06779e-02,0.00000e+00,0.00000e+00,0.00000e+00,0.00000e+00,0.00000e+00,0.00000e+00,0.00000e+00,0.00000e+00,-7.82248e-03,9.87355e-03,-7.08660e-02,-1.39558e-03,2.62761e-03,-2.31275e-02,-3.27011e-02,-5.94878e-02,
0.00000e+00,0.00000e+00,0.00000e+00,0.00000e+00,0.00000e+00,0.00000e+00,0.00000e+00,0.00000e+00,1.83607e-02,4.06655e-02,-6.90165e-02,-7.02436e-02,-5.63163e-02,-2.50836e-02,1.55667e-02,-7.27075e-02,0.00000e+00,0.00000e+00,0.00000e+00,0.00000e+00,0.00000e+00,0.00000e+00,0.00000e+00,0.00000e+00,2.27128e-02,2.68519e-02,5.74743e-02,2.26586e-02,3.87198e-02,1.22180e-02,1.12047e-02,-7.85135e-02,0.00000e+00,0.00000e+00,0.00000e+00,0.00000e+00,0.00000e+00,0.00000e+00,0.00000e+00,0.00000e+00,-2.49495e-02,4.87387e-02,5.68472e-03,-2.15088e-02,-7.27407e-02,-5.04796e-02,5.24133e-03,-1.66475e-02,0.00000e+00,0.00000e+00,0.00000e+00,0.00000e+00,0.00000e+00,0.00000e+00,0.00000e+00,0.00000e+00,2.63220e-02,-5.19482e-02,-2.52822e-02,5.59689e-03,-2.98855e-02,-4.63715e-02,2.84496e-02,3.64262e-02,0.00000e+00,0.00000e+00,0.00000e+00,0.00000e+00,0.00000e+00,0.00000e+00,0.00000e+00,0.00000e+00,4.21740e-02,-4.89790e-02,-2.77249e-03,-8.59960e-03,-8.50595e-03,-6.19940e-02,3.10029e-02,-4.24300e-03,0.00000e+00,0.00000e+00,0.00000e+00,0.00000e+00,0.00000e+00,0.00000e+00,0.00000e+00,0.00000e+00,-8.00017e-02,3.82134e-02,4.24459e-02,2.57634e-02,-1.38279e-02,-2.03073e-02,-6.63099e-02,4.88556e-02,0.00000e+00,0.00000e+00,0.00000e+00,0.00000e+00,0.00000e+00,0.00000e+00,0.00000e+00,0.00000e+00,2.24987e-02,2.26420e-02,-3.73944e-02,4.67017e-02,-3.04819e-02,-5.43561e-02,7.69858e-04,2.93762e-02,0.00000e+00,0.00000e+00,0.00000e+00,0.00000e+00,0.00000e+00,0.00000e+00,0.00000e+00,0.00000e+00,-5.99327e-02,-1.73906e-02,-7.77666e-02,4.77866e-02,-2.04002e-02,-3.40133e-02,3.14077e-02,4.69224e-02,
0.00000e+00,0.00000e+00,0.00000e+00,0.00000e+00,0.00000e+00,0.00000e+00,0.00000e+00,0.00000e+00,5.09008e-01,7.60663e-01,1.10042e+00,1.05341e+00,5.73356e-01,1.15003e-01,2.31420e-02,-1.58124e-01,0.00000e+00,0.00000e+00,0.00000e+00,0.00000e+00,0.00000e+00,0.00000e+00,0.00000e+00,0.00000e+00,8.51942e-01,6.74913e-01,8.65309e-01,8.37078e-01,1.87505e-01,-5.58557e-01,-1.01033e+00,-1.25868e+00,0.00000e+00,0.00000e+00,0.00000e+00,0.00000e+00,0.00000e+00,0.00000e+00,0.00000e+00,0.00000e+00,2.89621e-01,1.21035e-01,1.46361e-01,6.28457e-02,9.68556e-02,1.19504e-01,-8.15305e-02,-3.72821e-01,0.00000e+00,0.00000e+00,0.00000e+00,0.00000e+00,0.00000e+00,0.00000e+00,0.00000e+00,0.00000e+00,2.74987e-01,5.48817e-03,1.91465e-01,1.99872e-01,-9.01970e-02,-1.22661e-01,-4.55110e-01,-3.32049e-01,0.00000e+00,0.00000e+00,0.00000e+00,0.00000e+00,0.00000e+00,0.00000e+00,0.00000e+00,0.00000e+00,9.49225e-02,5.09706e-02,-3.71857e-02,-1.83722e-04,5.17196e-03,-1.39557e-01,-4.19324e-02,-3.43299e-01,0.00000e+00,0.00000e+00,0.00000e+00,0.00000e+00,0.00000e+00,0.00000e+00,0.00000e+00,0.00000e+00,1.26729e-01,-4.82690e-02,-6.00998e-02,2.57115e-03,-1.97781e-02,-6.92664e-02,-9.42994e-03,-5.08481e-02,0.00000e+00,0.00000e+00,0.00000e+00,0.00000e+00,0.00000e+00,0.00000e+00,0.00000e+00,0.00000e+00,1.15226e-02,-1.36760e-01,-4.94025e-02,-1.54516e-01,-1.51381e-01,-1.63616e-01,-1.20382e-01,-1.17821e-01,0.00000e+00,0.00000e+00,0.00000e+00,0.00000e+00,0.00000e+00,0.00000e+00,0.00000e+00,0.00000e+00,-4.61496e-02,-1.65348e-01,-1.91798e-01,-1.03533e-01,-1.54943e-01,-1.67066e-01,-1.56491e-01,-1.72013e-01,
0.00000e+00,0.00000e+00,0.00000e+00,0.00000e+00,0.00000e+00,0.00000e+00,0.00000e+00,0.00000e+00,-7.18450e-02,-3.42616e-02,-2.04501e-02,5.23015e-02,-2.97903e-02,-1.62821e-02,-5.63678e-02,-5.15551e-02,0.00000e+00,0.00000e+00,0.00000e+00,0.00000e+00,0.00000e+00,0.00000e+00,0.00000e+00,0.00000e+00,1.55137e-02,-3.89775e-02,-6.06416e-02,6.86112e-02,-8.85671e-03,-6.51003e-02,-5.60756e-02,1.53524e-02,0.00000e+00,0.00000e+00,0.00000e+00,0.00000e+00,0.00000e+00,0.00000e+00,0.00000e+00,0.00000e+00,2.52719e-02,5.69611e-02,-7.21192e-02,8.43689e-03,2.17116e-02,-3.12796e-02,-1.44661e-02,-3.79017e-02,0.00000e+00,0.00000e+00,0.00000e+00,0.00000e+00,0.00000e+00,0.00000e+00,0.00000e+00,0.00000e+00,-8.40075e-03,-8.65529e-03,-4.38289e-02,-2.79406e-02,-4.21023e-02,3.80044e-02,-5.89966e-02,-7.01619e-02,0.00000e+00,0.00000e+00,0.00000e+00,0.00000e+00,0.00000e+00,0.00000e+00,0.00000e+00,0.00000e+00,-1.05207e-02,2.63732e-02,-6.69647e-02,-6.99154e-02,5.12151e-02,-5.42806e-02,3.90329e-02,-3.54951e-02,0.00000e+00,0.00000e+00,0.00000e+00,0.00000e+00,0.00000e+00,0.00000e+00,0.00000e+00,0.00000e+00,-4.48272e-02,5.18463e-02,6.31223e-02,-6.63001e-02,6.89072e-02,3.65706e-02,-3.97766e-02,3.88044e-02,0.00000e+00,0.00000e+00,0.00000e+00,0.00000e+00,0.00000e+00,0.00000e+00,0.00000e+00,0.00000e+00,-5.49341e-02,4.34740e-02,3.60145e-02,-4.54915e-02,-7.07208e-02,5.33947e-02,8.26777e-03,5.41444e-02,0.00000e+00,0.00000e+00,0.00000e+00,0.00000e+00,0.00000e+00,0.00000e+00,0.00000e+00,0.00000e+00,-2.22926e-02,4.87895e-02,6.80594e-03,-4.90036e-02,-9.09968e-03,-1.12081e-02,2.98731e-02,6.42845e-02,
2.90362e-01,
-1.08977e-02,
-5.16136e-03,
-0.00000e+00,
-7.29056e-01,
-3.26475e-01,
-6.77230e-02,
-2.55598e-02,
-1.20313e-01,
-6.00547e-03,
-1.85441e-01,
-7.09384e-03,
-0.00000e+00,
-8.70623e-03,
8.05264e-02,
-0.00000e+00,
2.90362e-01,
-1.08977e-02,
-5.16136e-03,
-0.00000e+00,
-7.29056e-01,
-3.26475e-01,
-6.77230e-02,
-2.55598e-02,
-1.20313e-01,
-6.00547e-03,
-1.85441e-01,
-7.09384e-03,
-0.00000e+00,
-8.70623e-03,
8.05264e-02,
-0.00000e+00,
-3.22364e-01,-2.46679e-01,2.29008e-01,-1.45488e-01,1.66911e-01,-4.01421e-02,8.18754e-02,2.32941e-01,-2.40830e-01,1.64964e-01,-3.73840e-01,-1.82802e-01,-2.25763e-01,1.66723e-01,-1.13326e-01,2.29608e-02,2.36438e-01,-3.41775e-01,-2.90816e-01,-3.46314e-01,-2.52591e-02,-1.82742e-01,1.50020e-01,3.43419e-01,-3.56633e-01,2.63284e-01,-1.96711e-01,-1.95497e-01,2.41742e-01,5.99197e-02,-2.55286e-01,-3.08380e-01,
2.05894e-01,-4.12510e-03,3.04501e-01,2.07553e-01,4.40529e-01,2.47046e-01,1.18390e-01,3.43491e-01,3.03325e-01,3.02429e-01,3.33453e-01,3.59491e-03,8.24477e-02,-1.27824e-01,-1.62463e-01,2.34074e-01,-7.49818e-01,2.48111e-01,3.48920e-01,2.55490e-01,-2.17448e-01,-1.61421e-01,-9.05273e-01,-2.72137e-02,-7.02035e-02,5.97060e-03,3.55647e-01,-3.49703e-01,-9.01356e-02,2.80496e-01,5.24881e-01,7.71697e-02,
1.03804e+00,-2.47955e-01,1.82627e-01,-1.61887e-01,3.48049e-01,-4.34522e+00,-3.48448e-01,-1.28572e-02,7.99008e-01,-2.16227e-01,-5.58784e-02,-3.22532e-01,-2.03037e-01,2.78506e-01,-1.08159e-01,-7.35764e-02,-4.59519e-01,-2.94644e-01,-1.63826e-01,-1.95061e-01,-1.53173e-01,-1.24897e+00,-9.70196e-01,-6.79370e-02,-1.56949e-01,9.47658e-02,-2.11913e-01,2.39569e-01,-4.54813e-02,-3.23464e-01,-3.83358e-02,-1.63158e-01,
8.49288e-01,-2.54428e-01,-1.36657e-01,-1.90020e-01,7.00513e-01,-3.07213e+00,2.41990e-01,3.02339e-01,5.98771e-01,-3.37084e-01,-8.94580e-02,2.52804e-01,2.27983e-01,5.23616e-02,1.13524e+00,3.18019e-01,8.40430e-01,2.75342e-01,-2.51006e-01,1.16850e-01,-8.25422e-02,1.83728e-01,-3.69069e-01,-6.75173e-02,-2.48445e-01,-2.14382e-01,-8.75140e-02,-2.45192e-02,3.09270e-01,2.67040e-01,-9.39242e-01,3.18237e-01,
-8.31717e-01,6.85007e-02,4.32131e-03,1.82884e-01,4.28564e-01,-1.52683e+00,6.38907e-01,-1.32892e-01,5.99351e-01,1.25667e-01,3.66766e-01,-2.06521e-01,2.90891e-01,-1.42948e-01,1.69432e-02,1.31568e-01,-2.34079e-01,7.03319e-02,-8.55622e-02,-1.62612e-01,-5.31412e-01,7.24583e-02,2.31496e-01,-2.86148e-01,2.33206e-01,2.22381e-01,-7.04029e-01,-2.48856e-01,3.44537e-01,2.22498e-01,2.85390e-01,-1.96686e-01,
5.90870e-01,2.34778e-01,-2.68351e-01,2.99881e-01,3.32907e-02,2.06531e+00,-5.04227e-01,6.33358e-02,-1.87621e-01,1.15953e-01,2.58392e-02,-2.41621e-01,2.48780e-01,-1.28997e-01,-1.17107e+00,2.85872e-01,-7.73439e-01,-4.28568e-02,1.79282e-01,-5.14727e-02,1.00062e+00,-8.71772e-01,1.66380e-01,-1.88515e-01,8.31537e-01,-1.30592e-01,6.19890e-01,4.17719e-02,3.46977e-01,-6.72423e-02,-1.17488e-01,4.13713e-02,
1.41799e-01,-1.55386e-01,2.69753e-01,2.66040e-01,-7.33241e-01,-4.88193e-01,7.71586e-02,2.13754e-01,-8.06438e-01,1.39420e-01,-1.21090e-02,2.02171e-01,1.94681e-01,2.98278e-01,6.20252e-02,-7.08111e-02,-4.29635e-01,-2.31962e-01,-8.42295e-02,2.34831e-01,6.92501e-01,3.92833e-01,1.20716e-01,-1.49083e-01,3.42832e-01,2.86926e-01,5.57747e-01,3.37281e-01,-2.41672e-01,-1.59731e-01,6.89106e-01,2.02459e-01,
-8.21955e-01,2.81858e-01,3.16640e-01,2.15690e-01,1.22078e-01,-6.91592e+00,6.81657e-01,-8.92282e-03,-2.24265e-01,2.11021e-01,5.49941e-01,-3.70285e-02,-3.21159e-01,1.55457e-01,1.05116e+00,3.36996e-02,6.17307e-01,-1.01362e-01,3.52564e-01,2.54273e-01,-5.13611e-01,8.64122e-02,-4.34583e-01,2.88283e-01,-1.02040e-01,1.03442e-02,1.51055e-01,3.00592e-01,2.32443e-01,-8.55846e-02,-3.27913e-01,-7.94515e-02,
7.36783e-01,1.27432e-01,1.49876e-01,-1.47164e-01,3.21169e-01,-6.02547e-01,1.11266e-01,-2.10991e-02,-1.92119e-01,-3.12557e-01,1.26224e+00,1.10688e-02,-1.61628e-01,3.23747e-01,2.57743e-01,2.52214e-01,-1.01713e+00,-6.34623e-02,-3.44645e-01,-2.68290e-01,-9.74227e-01,-1.51496e+00,-6.20284e-01,-3.57824e-02,2.93341e-01,-1.67613e-01,1.85309e+00,-1.55822e-01,-3.11520e-01,1.57112e-01,2.40459e-01,2.81678e-01,
2.06365e-01,-8.62576e-02,-3.10337e-01,-1.99628e-01,-2.69403e-01,-2.11027e+00,4.16004e-01,-1.56647e-01,9.63111e-02,-2.91139e-02,-9.51897e-01,6.94823e-02,-3.02330e-01,5.23390e-02,1.86733e-01,3.37464e-01,4.18993e-01,-1.53004e-01,1.79113e-01,1.06693e-01,5.29647e-01,7.45709e-01,1.77298e-01,1.17450e-02,2.21400e-01,-3.52313e-01,-6.63983e-03,1.89431e-01,3.05963e-02,4.86811e-02,-3.25897e-01,3.02239e-01,
-3.04333e-01,1.85271e-01,1.48223e-01,3.10394e-01,4.21015e-01,3.99175e+00,6.28118e-01,-1.90765e-01,3.42657e-01,-8.82809e-02,-2.63030e-01,-7.07297e-02,1.49977e-01,-9.42050e-02,-1.69301e-01,-5.66645e-02,6.00430e-01,-1.19823e-01,-2.37300e-01,-2.09357e-01,1.13854e+00,3.09414e-01,2.21262e-01,-7.50357e-03,3.51781e-01,-2.60361e-01,3.15888e-01,4.22201e-03,9.08785e-02,6.59008e-02,9.57425e-01,-1.88114e-01,
2.43268e-01,1.20415e-01,-2.75627e-01,-8.90762e-02,-1.87177e-01,5.24458e+00,-3.79056e-01,-2.52247e-01,-5.67881e-01,3.32614e-01,2.12370e-01,9.14861e-02,3.49310e-01,-4.48671e-02,-1.06344e+00,2.44141e-01,-6.92170e-01,2.37228e-03,2.99586e-01,-1.64771e-01,5.09581e-01,-4.73280e-01,4.21745e-01,2.49050e-01,9.34537e-01,2.15512e-01,-2.38049e-03,-3.39747e-01,2.02567e-01,1.90395e-01,5.22359e-02,1.75941e-01,
-2.27256e-01,1.59831e-01,-3.37851e-01,3.50358e-01,6.13026e-01,-2.74505e+00,-1.46674e-01,3.24139e-01,3.28658e-01,1.78918e-01,1.09454e+00,2.43646e-01,-1.11797e-03,-2.97435e-01,-5.02593e-01,3.13065e-01,-3.81586e-01,-3.47565e-01,-1.84855e-01,-5.21997e-02,-3.24018e-01,-8.39023e-01,-3.19919e-01,-2.11194e-01,-2.10101e-01,2.95634e-01,-1.15289e+00,2.52349e-02,4.66435e-02,-5.44846e-02,9.74031e-01,-3.31326e-01,
-7.40073e-02,9.53567e-02,1.03339e-01,1.17865e-01,-3.11158e-01,3.05800e-01,1.30420e-02,2.02950e-01,-2.72833e-01,-8.04311e-02,-4.05441e-01,-3.44925e-01,-9.37344e-02,1.15714e-01,-3.56360e-01,-4.30631e-02,-3.45988e-01,4.27238e-02,3.26485e-01,2.72486e-01,-9.95574e-03,-1.51609e-01,1.88864e-02,-3.19855e-01,2.01611e-01,4.77428e-02,1.63006e-01,1.99251e-01,1.71180e-01,7.27203e-02,2.24309e-01,-2.99965e-01,
-8.67369e-01,-9.64173e-02,3.32869e-01,-1.85969e-02,2.91639e-01,-2.53013e-01,1.40570e-01,2.83006e-01,-2.63816e-01,2.95585e-01,1.74930e-01,1.87378e-01,-1.17374e-01,-1.88082e-01,-1.13424e+00,2.49260e-01,-4.42782e-01,-1.08966e-01,5.66186e-02,2.10870e-01,4.11265e-01,-2.85199e+00,2.21845e-01,8.57437e-02,-1.93734e-01,2.73473e-02,2.00058e-01,-1.65200e-01,-3.27646e-01,-1.49951e-01,1.02386e+00,-1.05871e-01,
-8.06863e-01,-2.28790e-01,-2.14618e-01,-6.13919e-02,-1.07150e-01,-2.05862e+00,9.32573e-01,2.95357e-01,-3.17633e-01,-2.48407e-01,4.20832e-01,-2.69237e-01,1.24885e-01,-7.28982e-02,-4.14957e-02,-3.22372e-03,9.76080e-01,-2.36050e-01,2.28520e-01,1.55748e-01,2.97775e-01,1.07629e+00,1.05630e+00,3.03914e-01,6.89217e-01,1.80679e-01,-2.58240e-01,-2.27572e-01,-2.59162e-01,-7.20916e-02,-8.31354e-01,-3.19626e-01,
-6.35300e-02,
3.97121e-02,
-3.70751e-01,
1.96242e-01,
7.19997e-02,
1.12133e-01,
-8.00129e-02,
2.02798e-01,
3.83853e-01,
4.63622e-02,
2.68409e-01,
-7.96038e-03,
-3.92227e-02,
-1.01563e-02,
1.86902e-01,
2.83082e-01,
3.16492e-01,-5.36610e-01,9.19536e-01,-8.64096e-01,5.63534e-01,-2.83257e-01,2.70602e-01,8.75820e-01,-9.44820e-02,6.90257e-01,6.43830e-01,-4.28457e-01,-1.93365e+00,-3.28548e-01,7.11020e-01,-9.22162e-01,
-4.41057e-01,5.65169e-02,1.76821e+00,-9.66892e-01,-2.79664e+00,1.14211e+00,1.18008e+00,-1.37547e+00,-7.28290e-01,-1.84634e-01,4.12978e-01,1.12318e+00,-4.97425e+00,3.31427e-01,-4.02550e-01,-5.29598e-01,
3.89163e-01,-6.18386e-01,4.32630e-01,8.65138e-01,3.81576e-01,-1.42403e+00,8.05612e-01,1.04539e+00,7.08455e-01,1.71786e+00,-7.13881e-01,6.17603e-01,1.88071e+00,-3.64384e-01,-9.94562e-01,-2.40818e-01,
-2.93260e-01,7.24495e-01,-1.29133e+00,5.26338e-01,-3.49620e-01,1.35938e-01,1.14885e-01,-6.53411e-01,4.22863e-01,-1.13055e-01,9.15122e-01,7.95134e-01,-2.26257e+00,-1.56816e-01,-2.12840e+00,3.97811e-01,
-4.21853e-01,1.92889e-01,-3.82006e+00,-1.37966e-01,-7.34703e-01,5.51812e-01,8.19942e-01,1.16921e+00,7.44398e-01,-1.34149e+00,3.01469e-01,-4.55932e-01,-1.38560e-01,-1.80918e-01,-4.88643e-02,-2.66451e-01,
-2.37508e-01,8.02927e-01,-2.11497e+00,-4.21764e-01,-3.07285e-01,-3.30787e-01,7.13796e-01,8.46231e-01,5.35716e-01,-1.21927e+00,-1.18392e-01,-1.75754e-01,-1.54564e-01,1.01496e-01,-9.67926e-02,-9.98411e-02,
-2.62464e-01,-4.32498e-01,-3.03945e-02,3.53016e-01,-3.77541e-01,-3.18367e-01,-1.15697e+00,8.52002e-01,9.34026e-01,3.54782e-01,-5.36255e-02,-1.21695e+00,1.03554e+00,2.06817e-01,-1.91907e-02,5.21513e-01,
-1.47699e-01,-3.12352e-01,-1.67976e+00,-2.81628e-01,-1.29159e+00,1.96677e-01,6.36516e-02,2.23364e-01,3.88768e-01,1.35231e+00,1.89411e-01,-5.67710e-01,1.64640e-02,-1.17989e-01,3.67133e+00,1.19528e-01,
1.48447e-01,-2.34649e-01,-9.32560e-02,-2.42202e-02,-2.94326e-01,3.19932e-01,-3.54989e-01,2.46004e-01,-3.73940e-01,-3.92142e-01,-2.55283e-01,-3.94508e-01,-2.88645e-01,1.67978e-02,2.00441e-01,-2.13921e-02,
1.64426e-01,2.71141e-02,8.06142e-02,-6.35574e-02,-3.72524e-01,1.32827e-01,-4.45837e-01,-3.56460e-01,-4.37043e-02,8.08112e-02,-2.63409e-01,2.28297e-01,1.39109e-01,-1.97881e-01,1.71359e-01,-3.21340e-01,
-1.10177e-01,1.64843e-01,-5.40726e-01,9.36607e-01,8.79130e-01,3.62781e-02,-2.46054e-01,4.45996e-01,8.56466e-01,4.22689e-01,-3.43669e-01,-2.06648e+00,1.69445e+00,2.80979e-01,-6.18946e-01,5.70826e-01,
4.12748e-01,2.32733e-01,-1.08963e+00,1.01068e+00,2.40097e-01,4.55493e-01,9.90251e-01,2.42590e-01,1.36886e-01,-9.29052e-01,-3.84317e-01,-2.36689e-02,1.15755e+00,3.53274e-01,2.71093e-01,-6.99678e-01,
2.84733e-01,-4.74898e-01,3.03840e-01,6.35782e-01,3.89234e-01,-3.61093e-01,-2.99695e-01,2.99157e-01,1.09895e-01,1.49735e+00,-8.37019e-03,-1.84408e+00,1.15214e+00,-2.18234e-01,-2.15037e-01,9.00417e-01,
-1.45729e-01,6.14332e-01,-1.54041e+00,-4.22997e-01,-2.11454e+00,6.51165e-01,2.57226e-04,-2.04495e+00,-1.52461e-03,-1.20712e+00,1.03806e+00,5.81900e-01,-3.39388e+00,6.19961e-02,1.08123e+00,6.21057e-01,
1.75152e-01,-1.12778e+00,-7.59918e+00,5.82378e-01,2.06501e-01,5.89936e-01,-7.30513e-01,-1.01561e+00,-1.08393e+00,5.59274e-01,5.63654e-01,-1.91205e-01,-2.51172e-01,1.56520e-01,-6.35531e-01,-8.73634e-02,
3.14135e-02,3.65371e-01,-1.65139e-01,-2.76003e-01,-1.05781e-01,6.70166e-01,-3.17876e-01,-1.22619e+00,2.21128e-01,-4.32309e-01,8.30512e-01,9.04905e-01,-2.90849e+00,2.93236e-01,-6.43483e-01,4.41096e-01,
1.93312e-01,
1.28223e-01,
-2.28020e-01,
1.85401e-01,
6.10933e-01,
-4.91085e-01,
1.54320e-01,
4.85629e-01,
-0.00000e+00,
-6.35293e-02,
4.13835e-01,
2.05695e-01,
3.99331e-01,
1.41979e-01,
2.84877e-01,
-8.00032e-02,
-5.42031e-03,-8.50370e-03,9.38798e-03,8.69009e-04,4.61121e-03,-3.16465e-03,-1.41510e-03,-2.17525e-03,-2.15117e-03,6.32262e-03,-7.96841e-03,-4.24888e-03,-2.41788e-03,5.75851e-03,5.74308e-03,2.89311e-03,
-1.88074e-02,
