// Neural Network File Format by Kyle Julian, Stanford 2016
6,2,3,30,
2,30,30,30,30,30,3,
0,
-1.2,-0.07,
0.6,0.07,
-0.29999999999999793,-5.551115123125783e-19,-59.206660183223455,
1.7999999999999998,0.14,130.53227260463015,
-2.35552e-01,8.95087e-02,
-2.34052e-01,-1.85776e-01,
2.28751e-01,2.01283e-01,
9.41809e-02,2.48086e-01,
1.87090e-01,2.28797e-01,
-2.38765e-01,1.60678e-01,
4.61308e-02,2.57228e-01,
1.95143e-01,1.67854e-01,
-1.50475e-01,1.72119e-01,
-3.28748e-03,-4.92580e-04,
-2.55967e-01,2.10564e-01,
1.51317e-01,2.58640e-01,
1.22440e-01,-5.83279e-02,
-2.21710e-02,2.55710e-01,
2.15846e-01,2.16785e-01,
2.14352e-01,1.71930e-01,
2.12253e-01,1.94656e-01,
-3.52555e-02,2.22815e-01,
-1.07065e-01,-4.66851e-02,
-1.62076e-03,7.32399e-03,
-2.53265e-01,-5.61036e-02,
6.90981e-02,-2.27444e-01,
-8.83315e-02,1.98911e-01,
-3.03479e-01,2.04944e-01,
-2.33126e-01,1.84900e-01,
-1.72068e-01,1.98057e-01,
2.54606e-01,2.31851e-01,
2.26806e-01,9.80644e-02,
2.32529e-01,2.68340e-02,
-2.39744e-01,3.43326e-02,
-7.45621e-02,
-5.79682e-02,
-8.94257e-02,
-6.84722e-02,
-6.97499e-02,
-7.17219e-02,
-7.04468e-02,
-7.64139e-02,
-5.24427e-02,
-3.16413e-03,
-7.09855e-02,
-7.56153e-02,
1.12536e-02,
5.69740e-03,
-7.80324e-02,
-8.40878e-02,
-8.20034e-02,
-6.40585e-02,
4.12637e-02,
-6.16352e-03,
-6.72833e-02,
1.77206e-02,
-6.39224e-02,
1.59049e-02,
-8.66362e-02,
-5.75509e-03,
-9.19066e-02,
2.22120e-02,
-3.09361e-04,
-7.55979e-02,
1.48180e-02,7.85765e-02,6.64041e-01,-2.12238e-01,5.80718e-02,3.96312e-01,-2.55211e-01,5.53692e-01,-2.50967e-01,-2.87281e-02,1.33573e-01,-4.80138e-01,1.01336e-01,-5.22454e-02,6.04730e-01,5.31893e-01,6.32828e-01,-3.40050e-01,1.49051e-01,1.83734e-02,1.28427e-01,3.17629e-02,-1.53202e-01,4.52862e-02,-1.74157e+00,1.57955e-01,3.69248e-01,7.21589e-02,-7.58388e-02,-1.73655e-01,
-5.16929e-01,-2.35469e-01,7.38282e-01,6.17854e-01,9.45316e-01,1.63016e-01,5.29350e-01,6.65894e-01,2.65846e-01,5.02272e-02,1.53318e-01,4.23857e-01,2.57695e-02,2.32769e-01,6.93358e-01,9.20074e-01,6.73585e-01,4.72721e-01,-1.58399e-01,8.25954e-03,-9.81829e-01,-1.08084e-01,3.08469e-01,7.67161e-02,8.59629e-03,1.91348e-01,8.24848e-01,1.68021e-01,1.58588e-01,-5.78204e-01,
2.22181e-01,-3.56342e-02,1.88859e-01,4.28603e-01,4.26901e-01,6.60154e-01,6.68603e-01,6.28565e-02,-2.00239e-01,-4.12712e-02,1.80805e-01,1.77959e-01,1.66571e-03,1.38553e-01,2.75485e-01,6.11679e-03,1.92736e-01,5.67686e-01,1.31212e-01,4.24739e-02,-3.02338e-02,-1.29305e-01,1.32251e-01,-1.01872e-02,-1.04346e-01,6.34675e-02,3.38836e-01,2.40915e-01,-1.85330e-01,3.29177e-01,
5.49511e-03,3.22935e-02,2.50670e-01,2.90236e-01,3.91181e-01,6.92856e-01,5.51982e-01,7.40919e-02,-2.52881e-01,-1.71915e-02,3.16614e-01,1.09331e-01,3.75081e-02,1.85199e-01,3.36781e-01,3.60621e-02,2.85492e-01,4.52999e-01,1.45784e-01,-4.53114e-03,9.03729e-03,4.42645e-02,1.12881e-01,-5.58916e-03,-2.32292e-01,1.14391e-01,6.49132e-01,2.19032e-01,-1.58136e-01,1.74685e-01,
-1.48988e+00,-7.72425e-01,-6.36349e-01,-6.38679e-01,3.56026e-01,-4.86865e-02,-1.43220e+00,-1.05988e+00,-1.17808e+00,2.26393e-03,3.04647e-01,-1.40222e+00,-4.83487e-01,-2.91080e-02,-7.31572e-01,-9.90824e-01,-4.23314e-01,-1.17068e+00,-2.06106e-01,4.86476e-02,-8.35303e-01,-3.56125e-01,-1.91290e+00,4.23050e-01,-1.88881e+00,1.22758e-02,2.88077e-01,-8.23184e-02,3.24498e-01,-1.35203e+00,
1.85060e-02,-2.16078e-02,4.53977e-01,6.38239e-02,1.14381e-01,3.51595e-01,2.31024e-01,3.15970e-01,-5.59856e-02,-2.30065e-02,-5.43756e-03,-6.71081e-02,4.29703e-02,8.29007e-02,3.83293e-01,3.78231e-01,4.27714e-01,9.02418e-02,6.53797e-02,1.59595e-02,3.85835e-02,3.12482e-02,8.55189e-02,-5.96287e-02,-1.14874e+00,1.02400e-01,1.81404e-01,1.31656e-01,-1.84307e-01,-2.32379e-02,
-5.99727e-02,3.25481e-02,3.67621e-01,2.46916e-01,3.73676e-01,8.25441e-01,4.28306e-01,2.46834e-01,-3.02588e-01,-2.71736e-02,4.27113e-01,3.05263e-02,9.91896e-02,1.03819e-01,3.73143e-01,1.55231e-01,4.41439e-01,4.05897e-01,9.89145e-02,4.37608e-02,4.13938e-02,7.79271e-02,1.29293e-01,-9.33875e-02,-3.83514e-01,1.29341e-01,8.30612e-01,1.24795e-01,-1.59679e-01,9.73300e-02,
2.04675e-01,-2.48093e-02,6.45884e-02,3.78289e-01,-5.45749e-02,2.94558e-01,3.85935e-01,2.41018e-02,8.31810e-02,-1.29659e-02,-9.99887e-02,4.75452e-01,8.82814e-02,-5.64367e-02,1.48892e-01,-9.39369e-02,-9.68988e-02,1.50958e-01,1.45816e-01,-3.11302e-02,1.09063e-01,-1.14230e-02,-3.53777e-02,-8.73093e-03,-1.95094e-01,6.57425e-02,-2.27131e-01,1.86266e-02,-1.81734e-01,3.35111e-02,
2.40441e-01,6.77717e-01,3.19119e-01,3.63013e-01,3.88441e-01,8.23731e-01,6.69043e-01,1.86917e-01,5.42376e-02,-1.11693e-02,1.03003e+00,1.83580e-01,1.59132e-02,1.41405e-01,3.21986e-01,1.75653e-01,3.32273e-01,8.89584e-01,6.59513e-02,-4.24527e-02,6.04880e-01,-3.77984e-02,4.97625e-01,-3.07114e-01,4.61478e-02,-1.15356e-01,2.14550e-01,3.03731e-01,-1.10762e-01,5.67433e-01,
2.16390e-02,1.70548e-03,4.16272e-01,-1.00167e-01,-1.24942e-01,-6.23364e-02,-7.08952e-02,2.84803e-01,1.93158e-01,6.45668e-03,-1.98076e-01,-6.52401e-02,5.39241e-02,1.60850e-01,3.86076e-01,3.12308e-01,2.79544e-01,2.03215e-02,4.17384e-02,-8.76473e-03,2.86561e-02,4.15880e-02,2.69616e-01,7.22091e-03,-6.90314e-01,1.89221e-01,6.35626e-02,1.07913e-01,-8.52543e-02,-1.04216e-01,
5.25258e-01,1.32712e-01,8.09301e-01,5.88528e-01,4.72614e-01,8.21540e-01,2.91222e-01,6.93529e-01,3.33539e-01,4.78524e-02,7.62243e-01,5.58927e-01,-2.70175e-02,-3.85473e-02,6.76486e-01,6.28339e-01,8.10928e-01,2.65668e-01,6.04676e-02,1.88445e-02,5.12938e-01,-9.86758e-02,3.24921e-01,-1.33988e-01,3.83676e-01,-3.33235e-01,7.45789e-01,-1.12782e-01,-1.29774e-01,4.45907e-01,
2.75994e-01,-7.34117e-01,3.93846e-01,3.87761e-01,4.79428e-01,1.12859e+00,4.77225e-01,2.23110e-01,-2.33458e-01,-3.67547e-02,7.27331e-01,9.72004e-02,1.25356e-01,3.15635e-01,3.77805e-01,1.64805e-01,3.46366e-01,3.42285e-01,5.30344e-02,-8.10147e-03,-1.11485e+00,3.34219e-02,4.76200e-02,2.25204e-02,-3.91066e-01,3.65173e-01,8.28515e-01,2.37462e-01,-1.19955e-01,-3.05774e-01,
-1.85422e-01,4.41386e-02,3.68565e-01,1.19854e-02,2.86258e-01,4.47946e-01,6.28948e-02,2.80025e-01,-3.16248e-01,2.83530e-02,1.90748e-01,-2.06510e-01,6.28344e-02,5.74629e-02,4.01521e-01,2.88234e-01,5.22449e-01,9.78905e-02,7.10290e-02,-1.70937e-02,9.60164e-02,2.87431e-02,-8.25109e-02,-7.84037e-02,-8.91953e-01,5.88166e-02,6.90709e-01,1.70854e-01,-9.46833e-02,-1.08015e-01,
-9.02602e-02,-2.53885e-02,2.94857e-01,3.13806e-02,9.04781e-02,4.23139e-01,1.66223e-01,1.44578e-01,-3.39161e-01,-8.30709e-03,1.07805e-01,-2.24725e-01,1.37980e-02,1.01140e-02,2.70882e-01,1.04291e-01,2.12942e-01,1.25564e-01,1.10286e-01,-4.01725e-02,5.18653e-02,3.42332e-02,-1.94196e-01,-5.40510e-03,-1.15190e+00,1.39847e-01,2.94749e-01,5.44472e-02,-1.32524e-01,-6.09447e-02,
1.61491e-01,1.34889e-01,-8.40074e-01,-1.01571e+00,-5.63173e-01,-1.93936e-01,-8.05080e-01,-1.13964e+00,1.20320e-01,-4.34684e-02,3.06158e-02,-1.39542e+00,-1.17884e-01,-1.52271e-01,-7.33382e-01,-9.73552e-01,-7.86630e-01,2.56708e-01,-9.74952e-02,-4.45867e-02,7.48602e-02,-1.30117e-02,1.06416e+00,1.26625e-01,2.35818e+00,-7.65938e-02,-5.33749e-01,-8.55583e-02,1.83408e-01,8.50430e-02,
-1.62218e-01,-6.70606e-02,2.73016e-01,1.70731e-01,2.81950e-01,4.75956e-01,3.61310e-01,1.47219e-01,-2.40623e-01,-7.58478e-03,2.03882e-01,-9.57458e-02,8.11692e-02,1.83864e-01,3.64392e-01,1.17791e-01,3.22890e-01,2.64156e-01,5.98342e-02,-2.80187e-02,-1.03491e-01,3.98246e-02,-5.62552e-02,-3.33910e-02,-5.57769e-01,1.14115e-01,7.38330e-01,1.51037e-01,-8.83574e-02,-4.64805e-02,
2.83510e-01,-1.35280e-01,2.80307e-01,4.94135e-01,1.22917e-01,3.91316e-02,3.14724e-01,2.13762e-01,3.17643e-01,1.29803e-02,-3.09711e-01,6.49296e-01,-1.18367e-01,1.07762e-01,2.32820e-01,1.82714e-01,9.99516e-02,1.93050e-01,4.68716e-02,1.49648e-02,5.26231e-02,-2.00360e-01,1.36586e-01,1.20440e-02,3.82764e-01,1.51727e-01,-1.44230e-01,1.96662e-01,-1.90173e-01,1.18000e-01,
-1.36882e-01,1.10188e-02,3.83621e-01,-3.46262e-02,1.26747e-01,4.77777e-01,5.83548e-02,2.74057e-01,-3.68379e-01,2.34333e-02,1.44646e-01,-2.84013e-01,5.43014e-02,-3.59964e-02,2.77621e-01,2.00500e-01,4.29823e-01,2.14304e-02,1.73379e-01,3.36489e-02,1.54410e-01,7.05423e-02,-9.05707e-02,3.10296e-02,-1.40048e+00,1.24799e-01,3.15924e-01,8.02494e-02,-1.52659e-01,-2.28831e-02,
1.67132e-01,-1.97623e-02,2.15979e-01,4.35138e-01,4.51209e-01,8.76275e-01,6.12655e-01,8.31795e-02,-1.85980e-01,-3.02162e-02,3.69672e-01,2.17166e-01,6.11426e-02,1.59212e-01,2.69495e-01,5.27464e-02,2.93624e-01,5.32643e-01,1.25452e-01,-3.61551e-02,3.55594e-02,-1.68820e-02,1.51100e-01,-4.87655e-02,-5.82131e-02,1.09143e-01,6.31346e-01,2.04531e-01,-1.85851e-01,3.17684e-01,
-1.46044e-01,3.05674e-02,2.47902e-01,1.40368e-01,2.98894e-01,3.94217e-01,2.75627e-01,1.83744e-01,-2.23597e-01,-3.31241e-02,7.02811e-02,-1.09812e-01,7.39867e-02,1.98789e-01,3.45570e-01,1.58251e-01,2.97154e-01,3.38038e-01,8.54385e-02,-4.00674e-02,-9.97064e-02,5.22303e-02,8.52948e-02,-7.45553e-02,-5.06396e-01,1.46660e-01,6.71204e-01,1.81740e-01,-1.37875e-01,4.46234e-03,
2.50778e-01,-2.79262e-02,5.33863e-01,3.38179e-01,2.07577e-01,-2.00305e-01,1.00600e-01,4.67616e-01,3.92594e-01,4.60056e-02,-2.66286e-01,4.46290e-01,-1.16695e-01,1.77998e-01,3.88137e-01,4.54786e-01,4.15255e-01,-2.78842e-02,-1.27619e-01,-6.53480e-04,-8.64695e-03,-3.59677e-01,1.74636e-01,-1.00830e-01,5.08835e-01,2.38312e-01,-4.99311e-02,2.00928e-01,-2.82096e-01,-3.01481e-03,
-1.11548e-01,1.26625e-02,3.91608e-01,-1.11170e-01,1.93481e-01,2.65279e-01,2.78042e-02,3.26428e-01,-2.18569e-01,-4.56961e-02,9.51909e-03,-3.30975e-01,6.45409e-02,6.52980e-02,3.99473e-01,2.45873e-01,3.79632e-01,1.31535e-01,1.34573e-01,-4.62137e-02,4.76009e-02,2.58049e-02,-2.32173e-02,-3.69208e-02,-1.02799e+00,1.48696e-01,3.24610e-01,1.63968e-01,-1.50898e-01,-1.17304e-01,
3.35796e-01,-8.20809e-02,1.77003e-01,4.72583e-01,7.16119e-02,3.59782e-01,4.08365e-01,2.35065e-01,1.78972e-01,3.13459e-02,-8.38292e-02,6.36857e-01,2.47981e-02,1.43787e-03,2.23428e-01,1.22603e-01,1.20194e-01,2.71521e-01,1.55303e-01,-2.19241e-02,7.68234e-02,-3.19247e-02,9.68798e-02,5.67208e-02,1.50170e-01,1.09681e-01,-2.29596e-01,5.14653e-02,-1.38069e-01,2.56809e-02,
-2.27021e-02,4.66567e-02,6.07317e-01,-3.61354e-01,1.40653e-01,2.70253e-01,-4.08016e-01,5.41647e-01,-1.83891e-01,-2.82668e-02,6.23018e-02,-6.33413e-01,8.85726e-02,5.01158e-02,5.38519e-01,5.34660e-01,6.89808e-01,-3.89893e-01,5.29360e-02,3.58874e-02,1.15304e-01,4.87038e-02,-1.26447e-01,3.95694e-02,-1.61008e+00,1.39456e-01,3.99809e-01,1.54585e-01,-8.83735e-02,-2.43104e-01,
3.32601e-02,1.32626e-02,2.58249e-02,-9.33897e-03,5.05410e-02,2.29485e-02,3.49925e-02,-7.14821e-03,-2.78443e-02,-2.62157e-03,4.00079e-03,-1.64964e-02,-3.72606e-02,2.68159e-02,-1.05122e-02,-1.05932e-02,-2.67803e-03,-1.01289e-03,-4.16743e-02,4.43155e-02,-2.67291e-02,1.92534e-02,1.96032e-02,3.52325e-02,-4.51504e-02,-6.16148e-02,-1.37977e-02,-5.34118e-02,2.79991e-02,2.69765e-02,
-7.15422e-02,-7.17682e-02,4.51987e-01,6.93351e-02,1.26378e-01,2.05195e-01,2.35175e-01,3.77573e-01,-1.05363e-01,-4.06824e-02,-9.63582e-02,-7.08569e-02,-9.31045e-03,1.34092e-01,4.01555e-01,2.69605e-01,4.05055e-01,5.50643e-03,6.18904e-02,3.66205e-02,-1.09982e-02,-4.52091e-03,-2.84850e-01,5.04776e-03,-1.31169e+00,1.79993e-01,1.74838e-01,1.72120e-01,-1.46504e-01,-1.09291e-01,
-1.79276e+00,-3.64383e-01,-9.10141e-01,-1.60180e-01,4.29605e-01,9.22087e-03,-7.50778e-01,-1.33455e+00,-4.91803e-01,-6.38896e-03,3.51388e-01,-8.08022e-01,6.84636e-02,-3.64669e-02,-9.97003e-01,-1.24116e+00,-9.03909e-01,-4.12934e-01,6.81184e-02,2.52864e-02,-7.35405e-01,-9.54662e-03,-1.15832e+00,1.85662e-01,-1.09942e+00,-1.39510e-01,1.54772e-01,-1.40373e-02,2.43636e-01,-1.99109e+00,
-1.71526e-02,-1.97239e-02,5.31870e-01,-1.83978e-01,1.03121e-02,3.28787e-01,-4.31823e-02,4.29976e-01,-9.35343e-02,2.99266e-02,5.75534e-02,-2.55265e-01,9.11036e-02,6.63942e-02,4.01643e-01,4.12640e-01,4.17495e-01,-1.16772e-01,1.31509e-01,-2.64149e-02,9.51116e-02,3.86147e-02,-7.03217e-02,3.19107e-03,-1.49217e+00,1.11650e-01,1.83508e-01,7.11408e-02,-1.58492e-01,-1.16744e-01,
9.79419e-02,4.71673e-02,-9.25519e-01,-9.22519e-01,-4.30411e-01,-2.73031e-01,-6.68447e-01,-1.30795e+00,1.14805e-02,7.44636e-03,9.09784e-03,-1.24366e+00,-3.15760e-02,-1.32730e-01,-8.23539e-01,-1.16514e+00,-9.20351e-01,-5.55806e-02,-1.04373e-01,-2.68844e-02,-2.92478e-02,-4.39343e-02,4.03675e-01,1.05415e-01,1.72196e+00,-1.78935e-01,-4.80266e-01,-1.22084e-01,2.45660e-01,-3.55645e-02,
-9.02261e-02,1.44202e-01,7.59695e-01,7.14031e-01,9.41905e-01,2.11135e-01,6.96729e-01,7.44456e-01,3.78774e-01,1.99853e-02,2.80579e-01,5.14879e-01,8.33510e-03,1.71723e-01,6.85470e-01,9.90172e-01,6.88988e-01,4.15170e-01,-2.92693e-02,5.19223e-02,-4.77746e-01,-1.22635e-01,1.94739e-01,1.05110e-01,1.07251e-01,1.81546e-01,8.81358e-01,1.49408e-01,2.05705e-01,-2.56451e-01,
2.02581e-02,
-4.92827e-02,
1.23259e-02,
7.84189e-04,
6.10183e-02,
1.78270e-02,
6.33970e-03,
1.96845e-02,
7.54653e-03,
2.03221e-02,
7.52366e-03,
1.89162e-02,
1.38010e-02,
1.36499e-02,
4.44666e-02,
1.06823e-02,
3.51169e-02,
1.28208e-02,
3.77734e-03,
6.68247e-03,
6.04196e-02,
1.40887e-02,
1.98420e-02,
2.08747e-02,
-1.04566e-02,
1.38395e-02,
2.82848e-02,
1.99800e-02,
4.34448e-02,
-5.17167e-02,
4.05704e-02,4.83401e-03,-2.69643e-03,-4.10793e-02,-4.87662e-02,-3.26136e-02,-1.12890e-02,-4.22027e-03,-1.44054e-02,-2.22235e-02,-1.60360e-02,-3.47523e-03,-2.24374e-02,5.07109e-03,8.22939e-04,2.98556e-02,4.30733e-02,-1.39931e-02,3.67816e-02,-1.18267e-03,2.04824e-03,4.41580e-02,-8.29600e-03,-4.99207e-02,-4.36662e-02,1.36154e-02,-1.87157e-02,1.68748e-03,-2.06147e-03,-2.44150e-02,
4.18148e-02,1.57400e-02,3.77339e-02,-4.99669e-02,-3.19899e-02,-3.03584e-02,-6.37711e-03,4.44343e-02,-1.56624e-02,-3.86890e-02,-3.90167e-02,1.37631e-02,-4.14498e-02,-4.19240e-02,-2.27889e-02,-4.53574e-02,-2.88083e-02,-3.69742e-02,1.54655e-02,1.84970e-02,-2.03468e-02,3.26601e-03,2.93383e-02,-2.57163e-02,-2.68117e-02,1.29682e-02,-3.71556e-03,-1.03575e-02,-4.60376e-02,1.00541e-02,
1.35978e-01,2.90609e-01,1.42798e-01,9.46495e-02,-4.63926e-01,1.27330e-01,1.36981e-01,2.47917e-02,4.73910e-01,1.10789e-01,-4.18003e-02,2.60987e-01,1.70795e-01,1.26907e-01,-1.63802e-01,1.46244e-01,1.29465e-01,8.75269e-02,1.31567e-01,1.66382e-01,-1.16548e-01,1.19789e-01,1.04505e-02,1.94142e-01,2.72062e-02,1.69767e-01,-1.85870e-01,9.60144e-02,-2.74874e-01,1.99181e-01,
3.60644e-02,2.39238e-02,1.74102e-02,-3.38044e-02,4.49194e-02,1.44213e-02,-3.89295e-02,-5.03833e-02,6.99470e-04,-1.75989e-02,-4.63674e-02,-3.57270e-03,3.97073e-02,3.46349e-02,-4.17928e-03,-2.19024e-02,-9.86068e-03,-2.20695e-02,2.25911e-02,-4.07240e-02,-1.33803e-02,3.90063e-02,-2.04622e-02,-1.17261e-02,-2.74742e-02,-4.37874e-02,1.64286e-02,-2.49051e-02,5.10168e-03,3.70719e-03,
1.38351e-02,-4.05338e-02,-3.90467e-02,-3.22545e-02,4.42745e-03,-1.25600e-02,-5.91323e-03,-2.48330e-02,-1.77799e-02,-2.93658e-02,-1.22105e-02,-1.97376e-02,-2.22889e-02,3.90511e-04,-4.21552e-02,-2.79585e-02,4.58800e-02,-3.31770e-02,-4.57468e-02,1.39009e-02,1.87369e-02,-1.03545e-02,3.69842e-02,4.49866e-02,1.49639e-03,1.00938e-03,1.79383e-02,2.29999e-02,-1.20541e-02,6.56728e-03,
5.59168e-02,5.42765e-01,1.02259e-01,7.73181e-02,-6.20633e-01,6.08772e-02,1.09974e-01,6.05409e-02,2.38051e-01,1.34973e-01,-6.94507e-02,2.42369e-01,5.96786e-02,9.52427e-02,-2.44208e-01,1.07243e-01,1.65478e-01,9.13789e-02,7.84783e-02,1.27211e-01,1.16356e-01,6.43269e-02,5.15337e-03,9.35886e-02,-3.48096e-02,8.47707e-02,-2.21032e-01,9.51348e-02,-2.76137e-01,5.55487e-01,
1.02427e-01,-4.31690e-01,4.52341e-01,2.78894e-01,6.94565e-01,1.01808e-01,2.19641e-01,9.89464e-02,5.49435e-01,8.10660e-02,-2.03439e-01,3.92532e-01,1.63939e-01,1.50537e-01,1.05673e-02,1.72791e-01,1.80779e-01,1.69056e-01,3.65084e-01,1.76096e-01,-2.30681e-01,1.94009e-01,1.90320e-01,7.80521e-02,2.90327e-02,2.58163e-01,1.41141e-01,1.59978e-01,-6.59449e-02,-4.54881e-01,
6.92399e-03,1.94154e-02,4.21658e-02,-5.19835e-02,-2.06280e-02,-8.61437e-03,-1.51219e-02,4.43059e-03,3.97885e-02,1.77742e-03,3.61773e-02,-1.11613e-02,-2.92669e-02,-3.83077e-02,-3.46914e-02,-3.70031e-02,9.18520e-03,-3.01858e-02,-1.31498e-02,-3.25496e-02,1.43055e-02,3.74406e-02,-2.83725e-02,3.90417e-02,3.37158e-02,5.44552e-03,-1.96897e-02,-5.42107e-02,-5.80492e-04,-4.08873e-02,
-3.17262e-01,1.39028e-01,2.25673e-01,5.99148e-02,9.95474e-02,-8.42705e-02,-9.27546e-02,1.12532e-01,1.27734e-01,-6.60317e-02,1.07075e-01,8.32412e-02,-1.75222e-01,-6.70889e-02,9.98751e-02,7.79304e-03,4.21566e-01,-2.15181e-01,1.47956e-01,-5.06691e-03,6.23570e-01,-1.76097e-01,2.07152e-01,-3.16084e-01,-3.17945e-02,-3.40013e-02,-5.47400e-02,-2.09041e-01,1.31137e-01,1.80375e-01,
1.92553e-01,2.80498e-01,2.57189e-01,1.56855e-01,-3.42761e-01,1.96454e-01,2.59704e-01,7.24646e-02,5.85217e-01,9.56306e-02,1.30220e-02,3.20728e-01,2.56522e-01,1.65672e-01,-2.53711e-01,1.99672e-01,1.42569e-01,1.32378e-01,1.73345e-01,2.31063e-01,-2.37909e-01,1.61026e-01,1.02655e-01,2.28917e-01,5.14682e-02,1.41546e-01,-9.77236e-02,1.85311e-01,-2.94101e-01,1.83104e-01,
1.23199e-01,3.23426e-01,2.60926e-01,1.79597e-01,-4.61220e-01,1.60571e-01,1.50785e-01,8.79836e-02,5.92417e-01,1.32413e-01,2.21331e-02,2.33761e-01,2.18283e-01,1.40889e-01,-1.92204e-01,1.71469e-01,1.63715e-01,1.57049e-01,1.34470e-01,1.16208e-01,-2.26484e-01,1.98166e-01,5.90583e-02,1.33868e-01,-1.13371e-02,1.46995e-01,-2.04126e-01,1.44868e-01,-2.81634e-01,2.45113e-01,
1.75569e-02,4.65504e-02,1.00248e-02,-1.75428e-02,-8.19535e-03,-2.13958e-02,-3.79734e-02,2.01167e-02,-1.12933e-02,2.98405e-02,-1.88440e-02,4.66771e-02,-1.14880e-02,-3.48837e-02,6.06516e-04,2.63778e-02,-4.16452e-02,-4.07485e-02,-3.66496e-02,-4.18713e-02,3.30448e-02,2.50163e-02,-3.48190e-02,2.31305e-02,-2.72902e-02,-3.89611e-02,-2.03227e-02,-4.12652e-02,2.54693e-03,-2.51695e-02,
5.72477e-02,7.16590e-01,7.07197e-02,2.89211e-02,-7.04140e-01,1.59813e-01,1.56528e-01,5.57452e-02,1.08656e-01,1.40364e-01,3.37485e-02,2.26612e-01,1.51890e-01,2.50021e-02,-2.08875e-01,1.25388e-01,1.03525e-01,2.15145e-02,6.04521e-02,1.49681e-01,1.93430e-01,1.08445e-01,3.65958e-02,1.02828e-01,1.59532e-02,6.28088e-02,-2.56284e-01,1.06522e-01,-2.30236e-01,7.05414e-01,
9.41120e-02,9.28868e-01,5.14790e-02,-4.62421e-02,-8.95922e-01,4.00712e-02,-3.50853e-02,2.67821e-01,-2.22106e-02,6.63552e-02,8.19409e-01,-3.06077e-01,-5.83645e-02,1.56073e-01,-7.71698e-02,-8.45121e-02,3.73454e-01,1.52343e-01,-2.50775e-02,-1.25293e-01,2.39076e-01,-1.46959e-02,2.56846e-01,-2.14405e-02,-4.10898e-02,-2.91630e-02,-3.64436e-01,1.03227e-01,-1.52708e-01,9.98155e-01,
1.18087e-01,8.66752e-01,1.21444e-03,-1.20829e-02,-7.38522e-01,5.34943e-02,3.42496e-02,6.66961e-02,6.17216e-02,1.34215e-01,5.32346e-01,7.90300e-02,5.58602e-02,5.34819e-02,-1.96660e-01,1.10748e-01,1.44291e-01,3.12120e-02,2.16437e-02,4.79391e-02,2.68224e-01,6.13807e-02,5.51248e-02,7.62298e-02,-5.60580e-03,1.09411e-01,-2.44963e-01,5.20448e-02,-1.44759e-01,8.91197e-01,
1.43841e-02,-3.38376e-02,1.40783e-02,2.83333e-02,-4.10228e-02,1.59258e-02,3.02643e-03,-2.78391e-02,-1.57961e-02,-1.95601e-02,1.81947e-02,-3.51252e-03,-9.57839e-03,4.88339e-02,-2.01968e-02,-7.88016e-03,-1.94518e-02,-4.65615e-02,3.33802e-02,-4.84601e-02,-3.01499e-03,-4.91896e-02,6.97717e-03,-1.36410e-03,1.36985e-03,-4.07619e-02,4.79293e-02,5.07161e-03,-9.02689e-03,-9.26530e-04,
5.45265e-02,8.75911e-01,6.03590e-02,3.31952e-02,-7.97296e-01,1.53829e-01,9.52852e-02,1.09668e-01,1.98270e-01,6.96917e-02,5.01782e-01,1.01792e-01,1.48487e-01,4.50554e-02,-1.29948e-01,5.48152e-02,1.91993e-01,8.15819e-02,2.86908e-02,6.51574e-02,1.01038e-01,6.84570e-02,6.45691e-02,1.37062e-01,-4.73999e-02,3.34172e-02,-1.74504e-01,1.04527e-01,-1.56474e-01,9.11009e-01,
2.30961e-02,3.15838e-02,-3.31885e-03,-4.89570e-02,-1.94320e-02,2.63044e-02,4.32910e-02,-2.32726e-02,-2.46099e-02,-1.71797e-02,-5.51352e-02,2.88081e-02,-4.84240e-02,-4.54818e-02,2.70245e-02,-4.30325e-02,-5.89681e-03,3.33164e-02,3.67813e-02,1.63436e-02,-4.88881e-02,-3.37044e-02,7.26777e-03,-4.92044e-03,-3.25710e-02,-3.37326e-03,-1.39997e-02,3.63230e-02,-1.95299e-02,2.09695e-02,
1.39987e-01,8.44978e-01,-1.47615e-01,-6.49578e-02,-1.01581e+00,3.79808e-02,4.47824e-02,1.38053e-01,-9.70452e-02,-2.15209e-02,5.17171e-01,-2.05372e-01,5.49993e-02,6.92494e-02,-8.46133e-02,3.58690e-02,4.89671e-03,1.15910e-01,-1.10704e-01,-2.28233e-02,2.14392e-01,4.15278e-02,7.96562e-02,7.48533e-02,-1.13497e-02,-8.88269e-02,-3.14694e-01,1.01516e-01,-8.51303e-02,8.43268e-01,
1.51079e-01,7.66835e-02,1.60976e-01,1.47348e-01,-4.24624e-01,1.39806e-01,7.30293e-02,9.45290e-02,4.63842e-01,1.70782e-01,1.03789e-02,2.84923e-01,1.69768e-01,1.26461e-01,-2.59668e-01,9.59094e-02,2.04525e-01,1.38767e-01,1.13418e-01,1.02320e-01,-8.46291e-02,1.88201e-01,8.79507e-02,1.84610e-01,1.36262e-02,1.59247e-01,-1.45433e-01,1.19195e-01,-2.82202e-01,1.30256e-02,
1.32453e-01,7.03690e-01,-1.91236e-01,-1.03064e-01,-8.75078e-01,6.71151e-02,-4.88778e-02,2.00735e-02,-3.25757e-01,1.26531e-01,7.06073e-01,-1.58901e-01,4.14243e-02,1.95055e-02,-6.76954e-02,-2.49833e-02,7.36313e-02,4.47238e-02,-1.56252e-01,-3.82125e-02,4.89180e-01,3.04930e-02,3.28895e-02,1.76062e-01,2.41339e-02,1.06652e-01,-3.10412e-01,1.04445e-01,-1.45589e-01,6.58909e-01,
4.16777e-02,1.52339e-02,1.59375e-02,-2.05471e-02,-1.20314e-02,8.80900e-03,-5.08415e-02,4.14516e-02,-4.11007e-02,-4.24562e-02,-7.36262e-03,4.21762e-02,-4.23167e-02,-3.11279e-02,1.47155e-02,-3.41243e-03,-1.27206e-02,-4.59714e-02,-1.01995e-02,-3.41528e-02,-3.29986e-02,-3.08640e-02,1.99866e-02,-2.74655e-02,-2.61172e-02,2.13076e-02,-1.73166e-03,1.16293e-02,-5.73163e-02,-4.62669e-02,
-1.47859e-01,-1.74361e+00,-3.62521e-01,-1.86016e-01,5.99836e-01,-1.87186e-01,-2.73479e-01,-1.15989e-01,-6.83056e-01,-6.36033e-02,-6.30023e-01,-3.83248e-01,-1.95700e-01,-2.22050e-01,3.76969e-01,-1.41017e-01,-1.91459e-01,-2.23442e-01,-2.66208e-01,-1.75417e-01,9.48704e-02,-1.77202e-01,-1.33857e-01,-1.41893e-01,-2.58343e-02,-1.62313e-01,2.18873e-01,-1.37356e-01,3.88998e-01,-1.08517e+00,
6.03171e-02,4.43207e-01,1.53461e-01,8.03098e-02,-5.45702e-01,1.52654e-01,7.01160e-02,2.82850e-02,3.76279e-01,8.85992e-02,-8.48160e-02,1.66767e-01,6.05375e-02,1.01608e-01,-2.08074e-01,1.21180e-01,2.05706e-01,1.15524e-01,4.62342e-02,1.43562e-01,5.86587e-02,7.72899e-02,4.50371e-02,1.50082e-01,-2.34045e-02,1.42302e-01,-2.11734e-01,9.22922e-02,-1.96283e-01,4.51622e-01,
6.07359e-02,8.06254e-01,-6.61608e-02,-5.10792e-02,-8.44199e-01,1.01173e-01,-1.06942e-01,3.50272e-02,-2.17503e-01,1.55106e-01,8.13327e-01,-1.54936e-01,-1.13975e-02,4.34320e-02,-6.02342e-02,1.79065e-02,1.80454e-01,4.01562e-02,-1.12259e-01,5.66103e-02,6.14403e-01,5.68771e-02,7.02541e-02,9.05611e-02,1.96299e-02,9.50997e-02,-3.84074e-01,1.07836e-01,-1.12413e-01,8.36646e-01,
1.44767e-02,-1.59397e-03,-5.43466e-02,-7.87278e-03,-2.73502e-02,7.19136e-03,-1.07842e-02,-1.32518e-02,-3.80070e-02,-4.44583e-02,-2.89648e-02,3.37023e-02,-1.52669e-02,-1.61926e-02,-2.02124e-02,3.58158e-02,1.52793e-02,-5.75925e-02,1.04263e-02,9.88589e-03,-1.03549e-02,1.35019e-02,-1.04349e-02,3.58965e-02,4.38280e-02,-1.08646e-02,-6.70980e-04,-5.00517e-02,-2.61694e-02,-5.16215e-02,
1.35075e-01,4.63255e-01,2.77658e-01,2.00829e-01,-3.10676e-01,2.18216e-01,2.26335e-01,1.26375e-01,6.14638e-01,1.00243e-01,-9.23626e-02,3.50115e-01,2.27267e-01,1.86421e-01,-2.34811e-01,2.35011e-01,2.21967e-01,2.17200e-01,2.88545e-01,1.63649e-01,-1.33473e-01,1.57240e-01,1.73341e-01,1.26159e-01,-2.09556e-02,2.24106e-01,-1.38204e-01,1.92985e-01,-2.67148e-01,3.66180e-01,
5.35457e-02,8.51440e-01,1.12873e-02,5.35675e-02,-6.69961e-01,7.21322e-02,7.18958e-02,7.88976e-02,5.81010e-02,8.55883e-02,3.59718e-01,2.13394e-01,7.55760e-02,1.10322e-01,-1.96926e-01,1.46538e-01,2.00738e-01,6.48174e-02,2.70284e-03,6.17774e-02,3.18123e-01,9.97172e-02,6.03447e-03,7.49482e-02,-7.65780e-03,8.35592e-02,-2.96512e-01,1.23803e-01,-2.31629e-01,9.46318e-01,
2.05062e-01,4.42316e-01,2.33151e-01,1.70419e-01,-4.21460e-01,1.83721e-01,2.14732e-01,1.68202e-01,6.17352e-01,1.13500e-01,1.19013e-02,3.65937e-01,2.25883e-01,2.09981e-01,-2.26765e-01,2.27979e-01,1.60985e-01,1.47590e-01,1.76320e-01,1.50251e-01,-2.03725e-01,1.18390e-01,9.43296e-02,1.76239e-01,5.39568e-02,2.07309e-01,-8.13573e-02,1.88759e-01,-2.50742e-01,4.28589e-01,
-4.67300e-02,4.93324e-03,-5.83621e-03,-4.89137e-02,3.24518e-02,9.43450e-03,5.63693e-03,-3.56039e-02,1.42658e-02,-5.08568e-02,-2.21361e-02,-4.86019e-02,-3.77931e-02,2.16945e-02,7.24130e-03,3.11350e-02,4.73652e-03,4.71798e-02,2.97889e-02,3.13889e-02,1.08083e-02,-2.44165e-02,-1.54459e-02,2.46057e-02,1.23195e-02,-3.93565e-02,-1.12184e-02,-5.17865e-02,1.46951e-02,-4.16968e-02,
-1.13932e-03,
0.00000e+00,
2.10478e-02,
-3.99363e-03,
0.00000e+00,
1.93966e-02,
2.69021e-02,
-6.55886e-03,
2.44697e-02,
3.14542e-02,
2.45205e-02,
-6.94532e-04,
2.11263e-02,
3.82676e-02,
2.98380e-02,
-6.94520e-04,
2.36529e-02,
-1.36088e-02,
6.72857e-02,
2.32140e-02,
6.96438e-02,
-6.88011e-03,
1.39773e-01,
7.37983e-03,
4.89184e-02,
-1.11514e-02,
1.87613e-02,
1.59600e-02,
1.10674e-02,
-3.69559e-03,
2.36262e-03,-7.04941e-03,-1.61812e-01,5.20135e-02,1.79790e-02,-2.30658e-01,1.40846e-01,4.15704e-02,2.27796e-01,-2.22907e-01,-2.35542e-01,-1.49820e-02,-2.97675e-01,-8.28703e-01,-4.37415e-01,2.87862e-02,-4.49864e-01,-3.30968e-02,-2.91682e-01,-1.96451e-01,-2.50049e-01,1.03037e-03,4.37866e-01,-2.50984e-01,-3.90925e-01,-3.48888e-02,-2.36180e-01,-3.63436e-01,-2.75046e-01,1.74757e-02,
4.86194e-02,-3.40238e-02,1.55685e-01,-4.73602e-02,-4.14114e-02,9.22813e-02,1.69716e-02,2.35672e-02,-3.15566e-01,2.14500e-01,1.87299e-01,-3.97613e-02,1.33099e-01,1.04137e-01,1.55554e-01,-5.00776e-02,1.47617e-01,2.19047e-02,3.07452e-01,2.35205e-01,3.55110e-01,-4.43600e-02,-1.60548e-01,1.26398e-01,2.23759e-01,4.44837e-02,9.68280e-02,1.03367e-01,1.35437e-01,-5.60911e-03,
4.97268e-02,-3.35610e-02,1.74999e-01,-2.96532e-02,-8.38673e-03,3.44108e-02,1.78775e-01,5.34626e-03,-5.45431e-01,2.35304e-01,1.96690e-01,9.88341e-03,1.87827e-02,-1.21413e-01,2.39256e-02,-2.83408e-02,-7.14779e-02,1.04722e-02,2.17351e-02,2.16421e-01,-4.92553e-02,-4.59539e-03,-2.87807e-02,3.51925e-02,-1.63549e-01,3.54957e-02,1.48566e-01,-3.21726e-02,1.62024e-01,3.24369e-02,
-1.72847e-02,-1.56963e-02,1.24215e-01,-4.80905e-02,4.46609e-02,1.71909e-01,-1.34171e-01,1.32886e-02,3.71825e-01,7.09826e-02,6.46346e-02,4.27876e-02,2.09520e-01,3.52923e-01,2.34319e-01,2.48282e-02,1.60629e-01,2.22702e-02,3.51356e-01,1.35321e-01,4.22338e-01,1.36962e-03,-9.31654e-02,8.85935e-02,5.44368e-01,-4.00434e-02,8.76729e-02,2.18623e-01,-1.24141e-02,1.06051e-02,
2.89610e-02,2.71830e-02,1.27023e-01,4.09452e-02,2.71727e-02,9.99931e-02,-5.29551e-02,2.32844e-03,-4.30118e-01,1.87200e-01,1.44746e-01,-2.12928e-02,1.15601e-01,1.33699e-01,1.97301e-01,2.62157e-02,8.09396e-02,2.45991e-02,2.53269e-01,1.43250e-01,3.36197e-01,-1.40484e-02,-1.30615e-01,7.65479e-02,2.83435e-01,-1.55422e-02,7.39273e-02,1.53209e-01,1.25264e-01,-3.82909e-02,
4.80471e-02,1.54399e-02,3.54927e-02,-1.99416e-02,3.50670e-02,-2.14219e-02,2.80156e-02,3.02373e-02,1.57716e-02,-3.72362e-02,-2.62575e-02,-2.31453e-02,-2.37465e-02,-4.50847e-02,2.20990e-02,-2.39129e-02,3.64372e-02,-3.01745e-02,-5.65525e-02,-3.42902e-02,-5.11408e-02,3.95163e-02,-1.38919e-02,-3.35069e-02,-5.29730e-02,-2.80498e-03,-2.73312e-02,-2.89076e-02,2.54627e-02,-3.58973e-02,
-3.51884e-02,-2.45571e-02,3.94967e-02,-4.71899e-02,-4.98638e-02,-1.59415e-02,-4.06613e-02,6.23685e-03,6.95727e-03,-1.31971e-02,-4.26878e-02,-3.15838e-02,-4.68236e-02,-1.04688e-02,-4.56112e-03,4.20784e-03,-3.41681e-02,-4.94658e-02,-1.78010e-02,-2.56096e-02,-1.23745e-02,-4.99483e-02,-1.54326e-02,-4.01451e-02,-1.06376e-02,-3.29771e-02,-3.63606e-02,3.55892e-02,-3.73445e-02,2.81979e-02,
-1.75292e-02,-7.14791e-03,4.88692e-03,4.06467e-02,2.07477e-03,-2.53748e-02,-4.40327e-02,-4.68755e-02,-4.49413e-02,1.35145e-02,1.53671e-02,-3.16341e-02,3.65573e-02,3.95016e-02,-2.83128e-02,-3.34279e-02,2.97546e-02,2.45029e-02,-4.80230e-02,-2.19527e-02,2.14231e-02,-4.62807e-02,-3.50779e-02,2.68076e-02,2.29415e-02,1.32519e-02,-4.07240e-02,-4.54149e-02,3.04014e-04,-3.55804e-02,
-1.71506e-02,-4.12878e-02,1.38266e-01,-3.22187e-02,-1.84397e-02,1.72961e-01,2.64917e-01,1.03348e-02,1.35114e-01,1.91977e-01,1.33193e-01,-2.12839e-02,8.67362e-02,3.69367e-02,2.64785e-02,-3.22697e-02,1.85377e-02,-3.55473e-02,-1.55138e-01,1.34821e-01,-2.54096e-01,2.41772e-02,-2.84221e-01,1.66803e-01,-2.02743e-01,-1.64890e-02,2.58956e-01,1.53154e-01,2.56828e-01,-3.69434e-02,
-3.04607e-02,-1.67082e-03,5.93470e-03,-2.23383e-02,1.33959e-02,-2.72175e-02,4.88049e-02,-7.23027e-04,-1.90181e-02,-4.87030e-02,-5.00956e-03,3.08788e-02,-1.36809e-02,-3.77009e-02,-6.11885e-03,3.39246e-02,-2.87498e-02,2.83728e-02,8.19849e-05,1.32499e-02,-2.94619e-02,2.32660e-02,-8.33758e-03,1.65929e-03,-5.56774e-02,3.22590e-02,-8.67187e-03,-2.02089e-02,1.46367e-02,4.50009e-02,
-5.98859e-03,-3.41790e-02,2.01911e-01,1.98149e-02,1.23489e-02,1.56835e-01,3.27776e-01,2.44859e-02,-2.54769e-03,3.02312e-01,2.60225e-01,-4.48063e-03,1.04813e-01,-1.82108e-01,-7.11441e-02,4.15671e-02,-4.49400e-03,2.19811e-03,-2.62537e-01,3.00397e-01,-3.88054e-01,1.28839e-02,-2.65006e-01,1.81334e-01,-5.41180e-01,-3.64992e-03,4.07874e-01,-1.11817e-02,3.53910e-01,-5.58631e-02,
-4.45005e-02,-4.23815e-02,9.10589e-02,2.29003e-02,-1.80918e-02,1.21288e-01,3.90262e-01,-4.23805e-03,2.93070e-01,2.07406e-01,1.34261e-01,5.05968e-02,1.60929e-02,5.01550e-02,4.55985e-03,3.81553e-03,5.05182e-02,2.03989e-02,-1.15954e-01,2.33894e-01,-2.92948e-01,6.13187e-03,-2.53051e-01,6.48756e-02,-2.09674e-01,-1.34873e-02,3.01301e-01,1.03788e-01,1.88709e-01,2.15238e-02,
-2.43439e-02,-3.26004e-02,2.28229e-01,-1.80508e-02,4.63392e-02,1.36136e-01,1.66920e-01,9.78014e-03,-8.27525e-01,3.53306e-01,2.05481e-01,8.23640e-03,1.40399e-01,7.32963e-03,2.56418e-02,2.95775e-02,5.39178e-02,1.14054e-02,1.23181e-01,2.76685e-01,6.83321e-02,-6.52560e-03,-1.90933e-01,1.50333e-01,-9.78147e-02,-3.67206e-02,1.77655e-01,9.04896e-02,2.55614e-01,8.44131e-03,
-1.15166e-03,6.27454e-04,1.58974e-01,-3.30391e-02,-2.17626e-02,1.94811e-01,-1.58332e-01,-3.55729e-03,-5.64288e-02,7.14000e-02,1.37753e-01,-3.61557e-02,2.42742e-01,3.18855e-01,2.55837e-01,-4.91670e-02,2.15223e-01,-2.71415e-02,4.08089e-01,1.42136e-01,3.81928e-01,3.25310e-02,-1.01877e-01,1.49825e-01,4.80537e-01,1.28645e-02,9.84613e-02,2.29945e-01,4.80969e-02,-3.38629e-02,
-3.13891e-02,-3.17410e-02,2.98798e-02,-2.56044e-02,-3.64934e-02,-4.47802e-02,-4.96007e-02,-3.55619e-02,-4.84552e-02,-3.57656e-02,-4.47624e-02,4.41609e-02,-4.58355e-02,-4.27713e-03,6.75115e-03,2.94323e-02,-2.65432e-02,3.05406e-02,3.98210e-02,-3.22606e-02,-5.64595e-03,3.51009e-02,-9.32127e-03,-4.20776e-02,-3.23803e-02,-1.09768e-02,-4.93302e-02,-1.76382e-02,-2.74836e-03,1.31327e-04,
-3.67157e-02,1.39605e-02,1.70962e-01,-2.89058e-02,9.16663e-03,1.48173e-01,-1.14800e-01,-1.61634e-02,-4.19402e-01,1.38565e-01,9.05145e-02,5.75198e-03,1.89432e-01,1.85568e-01,1.28289e-01,-4.37309e-02,1.63136e-01,-3.10493e-02,2.14400e-01,1.43389e-01,2.88773e-01,-2.15211e-02,-1.43183e-01,1.66482e-01,2.89621e-01,-2.64388e-02,1.37314e-01,1.09776e-01,7.97858e-02,-3.92164e-02,
1.40421e-02,-3.76681e-02,-1.34278e-01,-5.65745e-03,3.93100e-02,-1.46692e-01,1.49410e-01,1.66973e-02,3.71364e-01,-1.79435e-01,-1.56178e-01,-1.02072e-02,-2.72281e-01,-4.32954e-01,-2.15463e-01,-3.48798e-02,-3.32370e-01,-4.09317e-02,-3.35907e-01,-1.84237e-01,-1.40414e-01,-1.20174e-02,4.37858e-01,-1.57266e-01,-1.03575e-01,7.09448e-04,-1.17817e-01,-2.04673e-01,-2.10071e-01,-2.43990e-02,
-4.51657e-02,2.54796e-02,1.45667e-01,-3.75789e-02,2.08471e-02,3.50100e-01,-1.57138e-01,-3.95325e-02,3.28934e-01,1.11712e-01,1.26821e-01,2.43296e-03,4.06183e-01,5.72850e-01,4.82263e-01,-2.97243e-02,3.81242e-01,-1.24241e-02,5.43629e-01,1.34746e-01,4.64627e-01,1.08818e-02,-9.46495e-02,2.72151e-01,6.51554e-01,-5.84995e-03,1.12816e-01,4.57995e-01,1.02059e-01,-1.59551e-02,
2.40623e-02,1.74360e-02,9.45481e-02,3.59532e-02,-1.24964e-02,1.81773e-01,-1.69525e-01,-2.18428e-02,1.04434e-01,6.61045e-02,1.23972e-01,-4.77798e-04,2.25766e-01,2.79228e-01,3.06569e-01,1.84750e-02,2.14345e-01,-5.25882e-02,3.58422e-01,1.84049e-01,5.16803e-01,1.69572e-02,-9.67832e-02,1.77131e-01,6.19801e-01,1.03076e-02,1.48333e-02,2.23808e-01,6.97058e-02,1.06519e-02,
-1.57358e-02,3.41582e-02,-2.27859e-01,-7.22350e-03,-1.08375e-02,-2.82119e-01,-8.28136e-03,-3.31195e-02,2.77474e-01,-2.36203e-01,-2.07706e-01,3.60181e-02,-3.16957e-01,-1.00749e-01,-1.43956e-01,-3.87048e-02,-2.77001e-01,2.99328e-03,-1.82007e-01,-1.78511e-01,6.79107e-02,-2.05819e-02,3.96369e-01,-1.94095e-01,2.20619e-02,4.00944e-02,-2.66125e-01,-2.57684e-01,-2.54642e-01,-4.17233e-02,
-3.22991e-02,4.87189e-02,2.19256e-01,2.51794e-02,-2.75916e-02,8.17300e-02,2.86391e-01,5.81847e-03,-9.59736e-04,2.73829e-01,2.53756e-01,6.66075e-04,1.24571e-01,-4.43971e-02,-2.50524e-02,-4.02986e-03,-1.63119e-02,-2.43182e-02,-1.63478e-01,1.91741e-01,-2.95401e-01,1.02081e-02,-2.83352e-01,1.72550e-01,-3.70519e-01,1.40491e-02,2.61155e-01,4.23464e-02,3.03553e-01,6.51217e-03,
4.45651e-02,-5.03408e-03,-3.00190e-03,3.85200e-02,-3.98939e-02,-1.54261e-02,1.21241e-02,1.61375e-02,-1.20845e-02,-2.35642e-02,2.87243e-02,-4.18475e-02,1.60118e-02,-3.43457e-02,-8.90115e-03,-4.87873e-02,7.22356e-03,4.17691e-02,-2.78831e-03,5.47737e-03,2.28745e-02,-2.64571e-02,-3.15825e-02,9.23513e-03,-2.43205e-02,4.70606e-02,-4.66170e-02,-4.53219e-04,-8.01198e-03,-3.22763e-02,
-1.55317e-02,-3.21629e-02,-2.77890e-02,1.41093e-03,3.74511e-02,-1.30517e-02,-3.54104e-02,-5.03270e-03,3.13079e-02,1.84300e-02,-2.84133e-02,4.05115e-02,-2.83952e-03,1.37151e-02,3.57821e-02,-1.24556e-02,-2.28090e-02,-2.04696e-02,2.82982e-02,-2.58541e-02,1.89764e-02,1.64691e-02,-2.72822e-03,-6.90544e-03,-4.99766e-02,3.39656e-02,2.34752e-02,3.55171e-02,-3.12117e-02,-4.30710e-02,
-3.04786e-03,-3.80819e-02,1.68738e-01,-4.44232e-02,-2.68063e-02,-1.03079e-01,2.67182e-01,-3.94787e-02,3.03264e-01,2.35199e-01,1.74366e-01,-1.82831e-02,-1.39819e-01,-7.11580e-02,-1.60191e-01,-3.73450e-02,-2.44678e-01,2.84414e-02,-1.55490e-01,2.68431e-01,-1.67379e-01,-3.97769e-02,-2.10705e-01,1.46014e-02,-6.42752e-02,-2.56136e-02,2.39377e-01,-6.11424e-02,1.85900e-01,-3.99886e-03,
9.02116e-03,7.42531e-04,1.87798e-01,-4.03340e-02,-3.72032e-02,1.20143e-01,2.65228e-01,4.58282e-03,-2.22627e-01,3.96020e-01,2.99059e-01,1.97981e-02,1.53888e-03,-1.56195e-01,-4.60141e-02,-1.10611e-02,2.73117e-02,3.61034e-02,-1.56965e-01,2.30381e-01,-2.28228e-01,5.64587e-02,-3.36096e-01,1.43234e-01,-4.14321e-01,3.23418e-02,3.82053e-01,-6.64634e-02,3.41357e-01,-1.26386e-02,
1.07168e-03,-2.09559e-02,4.05013e-02,3.67627e-02,-4.61338e-02,3.22608e-02,2.36595e-02,-2.27217e-02,2.24747e-02,-2.35160e-02,-1.94863e-02,2.64476e-04,1.91910e-02,-2.29656e-02,-4.45863e-02,-1.20385e-02,7.66663e-03,4.05475e-02,-3.21801e-02,1.88358e-02,-9.06606e-03,3.99313e-02,-2.46161e-02,2.52200e-02,1.10369e-02,-3.17998e-02,-5.01656e-02,1.13233e-02,-1.69954e-02,-3.39422e-02,
4.02065e-02,2.48654e-02,-1.46479e-01,1.66724e-02,3.68559e-02,-1.15122e-01,1.04429e-01,-1.07437e-02,4.56044e-01,-1.49879e-01,-2.08821e-01,-3.89820e-02,-2.05574e-01,-4.67365e-01,-2.50972e-01,3.56352e-02,-3.49586e-01,2.83861e-02,-3.65079e-01,-1.00515e-01,-1.46747e-01,-1.25616e-02,3.78815e-01,-9.53171e-02,-1.73917e-01,9.15622e-03,-1.19031e-01,-1.35093e-01,-2.03892e-01,-1.86172e-02,
-4.75311e-02,-2.00995e-03,-5.06160e-02,-4.71088e-02,4.15734e-02,3.17986e-02,3.68372e-02,-2.77821e-02,-2.68496e-02,2.12171e-02,-2.12586e-02,2.38646e-02,-1.72049e-02,1.78972e-02,-5.52693e-03,-3.28632e-02,-3.17182e-02,-2.49448e-02,2.39889e-02,2.35736e-02,-2.38707e-02,-1.46620e-02,-3.18056e-02,-8.74372e-03,-2.30362e-02,-3.67233e-02,-6.11937e-02,-6.52871e-02,1.11864e-02,-1.05385e-02,
-3.71688e-02,-9.47555e-03,2.60408e-01,-5.53876e-02,-1.15588e-02,3.76382e-01,7.71319e-02,-1.23303e-02,-1.13856e-01,2.27925e-01,1.97788e-01,-3.92904e-02,4.40842e-01,1.50531e-02,2.65003e-01,2.92124e-02,2.80109e-01,2.34014e-02,1.17992e-01,2.49128e-01,-7.90987e-02,-1.87509e-02,-3.22880e-01,2.20653e-01,-5.50075e-02,-7.92790e-04,2.16355e-01,3.80516e-01,2.85787e-01,-1.18336e-02,
-4.23217e-02,-3.22778e-02,-2.82264e-02,2.18454e-02,4.18557e-02,-2.64718e-02,1.00604e-03,-2.07880e-02,-3.62912e-02,3.33328e-02,-4.65614e-02,-4.59388e-02,2.55345e-02,-3.90771e-02,-1.92065e-02,-2.77408e-02,1.51806e-02,1.68042e-02,4.07827e-02,2.01175e-02,-3.81712e-02,-3.62861e-02,-4.57483e-02,4.41133e-03,-4.31476e-02,1.99877e-02,-1.54843e-02,-4.30136e-02,-4.01491e-02,2.45111e-03,
2.14890e-01,
2.06870e-01,
2.28730e-01,
1.00881e-01,
1.51735e-01,
-3.66381e-03,
0.00000e+00,
0.00000e+00,
1.74603e-03,
-1.02603e-02,
8.26607e-03,
1.23929e-02,
3.75582e-01,
8.25607e-02,
0.00000e+00,
8.15393e-02,
2.28053e-01,
-2.10305e-02,
1.29696e-01,
1.72017e-01,
1.01504e-02,
-3.75229e-04,
-8.17840e-04,
1.09324e-01,
3.21286e-02,
-1.26415e-02,
2.34522e-01,
-1.16119e-02,
-2.58956e-02,
0.00000e+00,
4.25998e-01,3.74531e-02,-3.92617e-02,2.15176e-01,8.33010e-02,1.51124e-02,-1.42057e-02,1.74651e-02,-9.65508e-01,2.25075e-02,-1.16746e+00,-7.27444e-01,-8.26609e-02,1.87070e-01,4.88211e-02,8.75277e-02,3.59455e-01,5.86918e-01,2.52190e-01,3.66205e-01,-1.18808e+00,2.99158e-02,3.14366e-03,-2.32754e-01,-1.09988e+00,-3.72200e-02,3.56000e-01,-1.22159e-02,-1.79926e+00,1.20571e-02,
-2.90199e-01,3.01452e-01,1.96259e-01,3.46543e-01,2.64305e-01,-1.23339e-02,8.82737e-03,-4.79374e-02,2.63639e-01,1.58397e-02,2.61426e-01,2.61020e-01,2.92100e-01,2.91820e-01,-7.29340e-03,2.67193e-01,-1.51959e-01,3.29385e-01,3.41848e-01,-2.33335e-01,2.04533e-01,-1.34945e-02,-4.39953e-02,2.85150e-01,6.48851e-02,-2.08251e-02,-1.54365e-01,-1.91591e-02,2.30926e-01,-3.70075e-02,
3.30366e-01,3.41426e-02,1.63902e-01,-3.97304e-02,4.91072e-02,-6.06960e-02,-3.72508e-02,1.11949e-02,5.46408e-02,-1.64445e-02,4.17758e-02,-3.51181e-02,1.26033e-01,-3.94542e-02,-1.13998e-02,-8.11771e-03,2.21129e-01,-4.78206e-01,-4.84099e-02,2.08560e-01,1.84397e-02,-2.34753e-02,1.18191e-02,1.04070e-02,4.73004e-01,-1.92904e-02,2.79208e-01,4.08011e-03,-9.31512e-02,3.10489e-02,
-6.05256e-01,9.93245e-02,1.18430e-01,1.02887e-01,4.36245e-02,2.92947e-02,-4.69465e-02,2.27577e-02,1.42443e-01,-2.27989e-02,1.02865e-01,1.41797e-01,6.09566e-02,1.22310e-01,-4.58591e-02,2.82619e-02,-3.17320e-01,8.65944e-02,1.19376e-01,-6.49813e-01,1.58430e-01,-1.00741e-02,-1.36868e-03,1.46151e-01,1.40322e-01,-1.44392e-02,-3.31424e-01,2.35004e-02,3.28959e-02,-4.43383e-02,
-3.52730e-02,2.20877e-02,-2.86403e-02,-5.06835e-02,2.01027e-02,1.39538e-02,-2.68786e-02,-3.20177e-02,-5.67494e-02,-1.06742e-02,3.60462e-02,9.66608e-03,2.93724e-03,1.08850e-03,4.75775e-02,3.68872e-02,2.01676e-02,-4.31097e-02,-4.75399e-02,1.75368e-02,2.66726e-02,2.76194e-02,-9.67308e-03,-5.47224e-02,-9.38531e-03,4.22997e-02,9.52378e-03,3.63565e-02,3.37767e-02,3.25887e-03,
-3.91559e-02,-4.03593e-02,-9.52462e-03,2.17055e-02,4.35062e-02,-1.09989e-02,-6.34885e-03,2.30912e-02,-4.78937e-02,-1.38767e-02,-1.11712e-02,-3.39240e-02,-2.36307e-02,-4.86674e-02,4.01202e-03,9.55738e-03,-1.15851e-02,-7.30043e-03,2.15762e-03,-1.42068e-02,1.35850e-02,-2.80405e-02,2.98562e-02,7.17333e-03,9.18209e-03,-4.83136e-02,7.12803e-03,4.05922e-02,-3.03095e-02,-1.70557e-02,
-1.11379e+00,6.69081e-02,1.07683e-01,1.49346e-01,9.29676e-02,2.95477e-02,4.61406e-02,-3.38613e-02,1.09145e-01,3.04931e-02,8.06649e-02,6.73712e-02,8.46358e-02,8.43803e-02,4.70577e-02,1.48511e-01,-3.78103e-01,1.01667e-01,1.57077e-01,-2.02974e-01,1.01340e-01,-7.32260e-03,-7.38026e-03,1.45828e-01,1.81897e-01,1.23564e-02,-3.91792e-01,-3.14733e-02,1.34539e-01,4.34853e-02,
-6.24230e-01,9.68011e-02,4.14507e-02,1.07054e-01,7.60104e-02,-2.24496e-02,3.83467e-02,4.48184e-02,1.08046e-01,4.86473e-02,7.57874e-02,9.95397e-02,1.17096e-01,8.22769e-02,-1.37110e-02,4.26885e-02,-3.69045e-01,1.31433e-01,5.55694e-02,-5.36318e-01,1.34026e-01,-9.16426e-03,2.17869e-02,7.48972e-02,1.07455e-01,-1.92622e-02,-2.93721e-01,-9.38451e-03,6.74181e-02,-1.54993e-02,
5.09040e-02,-5.96093e-02,6.30707e-02,-1.13546e-01,-8.11310e-02,-1.90831e-02,-1.91512e-02,-7.92197e-03,6.95961e-03,-3.95261e-02,7.98794e-02,-2.37944e-02,7.77137e-02,-1.19627e-01,4.04885e-02,-2.21494e-02,2.78293e-01,-3.97251e-01,-1.07883e-01,8.92142e-02,1.19027e-01,-2.87700e-02,-6.95110e-03,-7.10089e-02,7.28367e-01,4.48229e-03,2.13474e-01,2.70459e-02,-3.92422e-02,-4.18638e-02,
-2.00598e-02,-5.25932e-02,1.51217e-02,3.04664e-02,6.08602e-03,-8.86338e-03,1.53629e-02,3.44928e-02,-1.00127e-02,2.02264e-02,-1.47026e-02,-6.35290e-02,1.85133e-02,-6.57604e-02,3.71873e-02,3.22709e-02,-2.92821e-02,1.01710e-02,6.03982e-03,4.44028e-03,-4.18482e-02,2.47913e-02,-4.80593e-02,-3.90510e-02,7.83049e-04,3.70718e-02,2.95333e-02,-3.83372e-02,-5.06783e-02,1.99788e-02,
2.64714e-03,1.63410e-01,1.03931e-01,1.72342e-01,1.86575e-01,6.89673e-02,2.91136e-02,-4.71019e-02,1.70182e-01,-1.11620e-02,1.62081e-01,1.38759e-01,1.32146e-01,1.40577e-01,1.41930e-02,1.80687e-01,-4.49463e-02,7.89019e-02,2.08332e-01,-1.34321e-01,1.85336e-01,-4.72172e-02,-5.55154e-04,2.10327e-01,-4.65109e-02,-4.58419e-02,-1.07229e-01,-2.93269e-02,8.83533e-02,1.06905e-02,
3.09641e-01,7.14354e-02,1.55119e-01,3.91351e-03,3.90041e-02,1.03531e-02,-4.00755e-02,3.75311e-02,-3.48776e-02,-3.38563e-02,2.93251e-02,6.89731e-02,9.93462e-02,-3.31592e-02,-2.67841e-03,-4.31137e-02,2.54193e-01,-4.79359e-01,1.99855e-02,1.71792e-01,1.71650e-02,3.27996e-02,3.92033e-02,8.06241e-02,2.78806e-01,-1.22557e-02,2.57952e-01,-1.43934e-02,-7.35926e-02,-3.84931e-02,
3.48087e-02,-3.97997e-02,1.26323e-02,-3.81605e-02,-1.73321e-02,-2.94662e-02,2.42817e-02,-1.15168e-02,-9.75324e-03,-2.47346e-02,-7.18715e-03,2.75238e-03,-2.85270e-02,-2.30680e-03,2.59907e-02,-4.76643e-02,1.89437e-02,-4.06312e-02,2.60234e-02,-5.82454e-02,3.77114e-03,1.53134e-02,-1.14450e-02,-3.12067e-02,1.75331e-03,-4.27905e-02,3.36242e-02,-4.78171e-02,-7.88604e-03,2.32974e-02,
-2.88324e-01,3.98149e-03,-1.27362e-01,3.38951e-02,3.42417e-02,-1.16898e-02,4.49708e-02,4.62692e-02,2.99152e-02,-1.56897e-02,-1.02502e-02,7.15602e-02,-4.55791e-02,4.46469e-03,-2.34810e-02,5.94129e-02,-5.13932e-01,7.86051e-02,1.56097e-02,-6.41528e-01,2.95667e-02,-3.21092e-02,1.48728e-03,-1.71311e-03,-4.95985e-02,-9.41169e-03,-4.03756e-01,-4.05480e-02,1.67916e-02,3.71435e-02,
-1.74580e-02,-5.69768e-02,-9.78271e-03,-4.35566e-03,-3.90071e-02,-1.59636e-02,-1.44119e-02,3.73966e-02,-4.30500e-02,4.74112e-02,-3.67267e-02,3.57909e-04,3.52892e-02,-6.06853e-02,-3.98435e-03,-6.93114e-03,3.45418e-04,2.56975e-02,-1.60690e-02,-5.10806e-02,6.85964e-03,1.72746e-02,-3.82783e-03,2.48410e-02,1.09203e-03,-8.38331e-03,-2.09350e-02,-7.83788e-04,-4.92415e-02,2.24529e-02,
1.90741e-01,-5.16617e-02,6.77857e-02,-7.94162e-02,-7.81993e-02,-6.16910e-02,-4.41159e-02,3.48425e-02,-5.90122e-02,-2.37066e-02,9.43104e-02,-1.90066e-02,5.51671e-02,-7.28830e-02,1.39434e-02,-3.03597e-02,2.86570e-01,-4.22753e-01,-1.27771e-01,1.97297e-01,1.08586e-01,4.47723e-02,-4.78827e-02,-1.16399e-02,6.76152e-01,4.79393e-02,3.12105e-01,-2.97608e-02,2.33319e-02,1.57506e-02,
-3.16266e-01,-7.01486e-04,-1.07425e-01,8.91067e-02,3.62990e-03,-8.04716e-03,-1.43069e-02,6.49822e-03,8.67786e-02,1.36499e-02,5.45288e-02,3.16755e-02,-8.67878e-02,1.07109e-02,-2.88226e-02,6.41594e-02,-8.23799e-01,1.79220e-01,2.62021e-02,-8.70510e-01,8.09411e-02,-4.11643e-02,3.37880e-02,4.81227e-02,1.38044e-02,5.53537e-02,-7.46070e-01,-4.46510e-02,5.47883e-02,-1.82811e-02,
5.25010e-01,-2.97815e-02,9.57231e-02,-2.08460e-03,-2.70530e-02,-1.67502e-02,-7.70126e-03,2.06254e-02,-1.64298e-02,-1.89415e-02,5.26512e-02,2.24846e-02,4.06657e-02,-3.89255e-02,-5.13851e-04,-4.25582e-02,3.64521e-01,-3.42861e-01,4.42229e-04,4.18545e-01,2.33050e-02,-9.44382e-03,-4.78811e-02,1.01027e-02,6.43885e-01,-1.97025e-02,4.07093e-01,5.25677e-02,-3.11682e-02,-1.68851e-02,
-1.44116e-01,-7.89519e-03,-1.17871e-01,7.12644e-02,-5.48868e-02,4.54381e-02,1.62608e-02,-4.77844e-02,1.19761e-01,1.38867e-02,4.45342e-02,9.05138e-02,-1.22646e-01,1.80627e-02,-3.56718e-02,-1.98112e-02,-1.55526e-01,2.51506e-01,1.25083e-02,-1.90473e-01,1.05613e-01,-4.72045e-02,-2.49359e-02,5.27760e-02,3.31213e-02,7.66646e-05,-2.07674e-01,-9.19356e-03,8.51772e-02,2.96523e-02,
-2.29734e-01,3.83845e-02,2.09519e-01,-5.05289e-02,-1.53758e-03,-1.59443e-02,1.17387e-03,-1.32276e-02,-2.72089e-02,-3.71256e-02,6.67418e-02,1.11445e-01,1.55808e-01,-6.34070e-02,-4.34038e-02,-3.81314e-02,-7.38071e-02,-2.65228e-01,-4.38320e-02,-2.28792e-01,2.53341e-02,4.95642e-02,-3.56242e-02,1.01063e-01,2.57994e-01,-3.44300e-02,-1.62223e-02,2.81067e-02,-8.53123e-02,-4.56040e-02,
-1.37439e+00,1.81953e-01,1.37682e-01,9.63834e-02,1.54113e-01,-4.01507e-02,1.07548e-02,-8.12563e-03,9.92110e-02,-4.71149e-02,4.36890e-02,2.89443e-02,1.72551e-01,1.39228e-01,3.39315e-02,1.42644e-01,-4.98700e-01,2.52411e-01,8.31800e-02,-3.37972e-01,1.14561e-01,2.19590e-02,-6.15431e-03,6.84399e-02,7.20153e-02,-3.71435e-02,-5.74651e-01,8.17968e-03,1.57872e-01,-3.25564e-02,
-1.32367e+00,1.45326e-01,8.81545e-02,1.25917e-01,1.22393e-01,-3.51175e-02,4.80658e-02,4.61053e-02,1.03419e-01,-2.43723e-02,1.53739e-01,1.26270e-01,1.51531e-01,1.44583e-01,2.77118e-04,1.49040e-01,-4.47568e-01,1.56287e-01,1.17157e-01,-3.26570e-01,1.35373e-01,-4.15719e-02,-3.21737e-02,1.28526e-01,1.16154e-01,-3.42923e-02,-4.16830e-01,2.85358e-02,1.61700e-01,1.68050e-02,
2.16378e-03,-1.55415e-02,1.27651e-02,-2.72155e-02,-1.96242e-02,-3.87059e-02,-3.72552e-02,4.18362e-02,1.31642e-02,1.78912e-02,9.61569e-03,-2.32782e-02,6.99527e-03,1.57662e-03,-2.95077e-03,-2.34309e-02,-3.01674e-02,-1.10685e-02,2.63556e-02,2.36798e-02,-1.03579e-02,-2.26108e-02,-2.97110e-02,-1.05505e-02,9.76671e-03,-4.64359e-02,1.06578e-02,2.09502e-03,3.62893e-02,-4.46990e-02,
3.63577e-02,3.55570e-02,1.32954e-02,3.00045e-02,-2.02063e-02,-9.76582e-03,4.07891e-02,4.80710e-02,-8.89377e-03,1.12197e-02,2.67660e-02,-1.90804e-03,5.90258e-03,-5.36515e-02,4.72400e-02,3.83901e-03,-5.38509e-02,-1.85025e-02,-4.55429e-02,-4.43923e-02,1.88782e-02,1.36950e-02,-7.09400e-03,-4.15050e-02,-3.62299e-02,-1.61589e-02,2.65142e-02,1.61793e-02,-7.53867e-03,-3.59322e-02,
-1.14398e+00,9.32842e-02,1.13949e-01,7.58404e-02,8.21678e-02,1.18038e-03,3.39125e-02,-4.16176e-02,1.77398e-01,3.13981e-02,1.61849e-01,1.32988e-01,5.99370e-02,1.06975e-01,3.37186e-02,1.05222e-01,-5.25495e-01,1.73307e-01,1.30120e-01,-3.72709e-01,1.38525e-01,-2.18848e-02,4.05932e-02,1.23509e-01,1.96452e-01,-1.33835e-02,-4.94955e-01,2.63858e-02,8.85230e-02,-2.39603e-03,
2.51462e-01,2.88270e-02,1.14325e-01,-3.90198e-02,5.14493e-02,-1.97354e-02,2.90266e-02,-1.14547e-02,8.90336e-03,-2.31458e-02,5.67072e-03,3.52975e-02,1.28988e-01,-1.14638e-01,2.54143e-02,-4.24565e-02,3.10690e-01,-4.88187e-01,-3.01536e-02,1.08667e-01,5.29737e-02,2.30927e-02,1.81075e-02,2.06477e-02,5.29136e-01,-2.20211e-02,3.06672e-01,-3.85172e-02,-4.57326e-03,7.23702e-04,
-1.03456e+00,6.80901e-02,5.91500e-02,8.56091e-02,5.20481e-02,1.31052e-02,1.96543e-02,-4.28933e-02,1.12590e-01,-1.14257e-02,1.21337e-01,1.21721e-01,9.13449e-02,8.56225e-02,1.92478e-02,7.88359e-02,-3.12484e-01,4.14192e-02,6.14189e-02,-3.62619e-01,1.42336e-01,7.48857e-03,8.67472e-03,1.17488e-01,1.54058e-01,4.99532e-02,-3.93587e-01,2.99106e-02,1.08277e-01,-6.91449e-03,
1.35538e-01,1.32204e-02,1.31092e-01,-1.30241e-01,-2.32815e-02,-6.63954e-03,-9.19436e-03,7.38415e-03,2.99804e-02,4.19728e-02,7.91956e-02,-4.86576e-02,7.75665e-02,-1.08182e-01,-1.19728e-02,-4.71935e-02,2.16876e-01,-4.74249e-01,-9.44164e-02,6.91781e-02,1.17652e-01,1.61052e-02,9.17476e-03,2.02515e-02,6.68734e-01,-9.58183e-03,2.47664e-01,2.63533e-02,3.73814e-02,2.77442e-02,
2.93945e-02,-5.38160e-02,-4.43361e-02,-6.13515e-03,-2.07183e-02,2.10708e-02,-6.88798e-04,-2.38154e-02,-3.16270e-02,-1.30460e-02,-4.43243e-02,1.87415e-02,-4.54815e-02,-6.17150e-03,2.20923e-02,3.82069e-02,2.65189e-02,-3.69018e-02,3.15841e-02,2.49930e-02,4.74540e-02,-4.75891e-03,2.62685e-03,-2.92819e-02,-4.11871e-02,-2.36580e-02,-3.12818e-02,-8.92868e-03,-2.64721e-02,1.16241e-02,
-2.51340e-01,4.60302e-02,-9.36916e-03,8.33168e-02,4.78161e-02,-3.62220e-02,-4.50240e-02,-3.98044e-04,8.80711e-02,-3.98378e-02,9.90405e-02,1.39454e-01,-6.33174e-02,5.99819e-02,-1.75501e-02,1.90551e-02,-9.20748e-01,7.38915e-02,7.15515e-02,-1.12555e+00,1.22673e-01,-4.33148e-02,-2.69673e-02,1.11601e-01,1.20494e-01,3.88350e-02,-7.13169e-01,6.38761e-03,8.87725e-02,-6.28672e-03,
1.76587e-01,
1.70851e-01,
2.22496e-01,
4.94661e-02,
-9.00239e-03,
0.00000e+00,
2.49563e-02,
5.96953e-02,
9.00590e-02,
-3.60942e-03,
1.04896e-01,
2.23637e-01,
-1.02310e-02,
-5.40029e-01,
-1.02356e-02,
7.98137e-02,
-4.99345e-01,
1.11323e-01,
-3.25486e-01,
2.31609e-01,
-7.54324e-02,
4.35425e-02,
-1.24154e-03,
-7.79047e-04,
-2.73530e-02,
1.94773e-01,
6.07048e-03,
1.12564e-01,
-5.69850e-03,
-1.71474e-01,
-3.13132e-01,4.26556e-01,-2.11448e-01,-2.06427e-01,-4.08900e-02,4.39542e-02,-1.71194e-01,-2.36111e-01,-3.53055e-01,4.64109e-02,1.86062e-01,-1.63164e-01,-7.68655e-03,-1.81458e-01,1.36514e-02,-3.05139e-01,-2.30465e-01,-2.15263e-01,1.83786e-01,-1.70485e-01,-5.49910e-02,-2.61587e-01,3.66361e-02,1.77273e-02,-1.57276e-01,-2.30193e-01,-1.40508e-01,-2.59727e-01,-3.02592e-02,-1.41025e-01,
-7.06035e-01,1.62284e-01,-2.16150e-01,-1.06063e-01,-7.56209e-03,1.01594e-02,-7.01165e-02,-1.35239e-01,6.67020e-03,2.83550e-02,-3.62595e-02,-2.37019e-01,-5.05771e-03,-1.59478e-01,3.42100e-02,-6.98427e-02,-1.80480e-01,-2.23656e-01,8.08433e-02,-1.83664e-01,2.45429e-01,-1.24074e-01,4.71537e-02,-2.06851e-02,-4.58438e-02,-1.49953e-01,-5.69445e-02,-7.41976e-02,5.99337e-03,-1.82018e-01,
-9.09008e-01,-1.45662e-01,-3.38695e-02,-9.48773e-02,-2.06560e-02,3.34247e-02,1.62566e-01,-5.08435e-02,-1.10534e-02,2.63465e-02,-3.81815e-02,-3.26634e-02,3.00514e-02,-3.07112e-02,1.11527e-02,4.04611e-02,4.55717e-02,9.38903e-02,-9.19025e-01,-3.37644e-01,2.46834e-01,1.51661e-01,1.78702e-02,-4.40950e-02,1.95095e-01,-3.75670e-02,1.31607e-01,-6.93188e-02,-2.19097e-04,1.21054e-01,
1.06968e-01,
1.64513e-01,
1.69399e-05,
